svm_type c_svc
kernel_type rbf
gamma 0.0555556
nr_class 36
total_sv 423
rho 0.0579934 0.0136049 0.0450165 0.00550495 0.0410061 0.0103705 0.00336529 0.0270646 0.00028414 0.128847 0.0466864 0.015988 -0.0237357 0.0600899 0.0494327 0.012638 0.0143221 0.0798153 -0.0212792 0.0722301 -0.0356311 0.0276863 0.0339945 -0.032118 0.0237737 0.074841 -0.0636864 0.00797911 0.0218901 0.0498458 0.00726363 0.0299918 0.0233504 0.0187316 0.0765606 -0.0443122 0.0688875 -0.034664 -0.0147702 -0.0476505 -0.0549024 -0.030835 -0.0575323 0.166738 -0.00862554 -0.0422359 -0.0841503 0.0021596 0.0110206 -0.0454426 -0.0986884 0.034488 -0.0789422 0.0172842 -0.092206 -0.034224 -0.0203381 -0.0892346 -0.0345609 0.0184761 -0.120956 -0.0521982 -0.0383466 -0.013966 -0.0527548 -0.0273501 -0.0345987 -0.0576569 0.0189186 0.0317768 -0.00823686 0.0271102 -0.00113732 -0.0103099 0.0134016 -0.0127084 0.11393 0.033153 0.00243314 -0.0373873 -0.0230661 0.035957 -0.0134899 0.000283199 0.0668375 -0.0349491 0.0586664 -0.0482752 0.0131493 0.0246169 -0.0468086 0.0106121 0.0610883 -0.0772382 -0.00967354 0.00721707 0.0302424 -0.00640558 0.01602 0.0104481 0.00458331 0.0630006 -0.0427444 -0.0029075 -0.0349058 -0.041866 -0.0179517 -0.0447109 0.0895993 0.00740849 -0.0290433 -0.0689256 0.0150553 0.0360245 -0.0327935 -0.0579006 0.038646 -0.0661878 0.0290622 -0.078968 -0.0184976 -0.00680224 -0.0761865 -0.0210843 0.0303771 -0.108241 -0.0435851 -0.0313858 -0.00112176 -0.0363291 -0.0168211 -0.021766 -0.0374064 0.0302386 -0.00470188 0.00478952 -0.000390061 0.0216534 -0.00511445 0.247267 0.043187 0.0108518 -0.0282722 0.0546876 -0.0486532 0.00723478 0.0912436 0.0768723 -0.026641 0.0682236 -0.0394929 0.0215436 0.0338453 -0.036873 0.0190286 0.0709619 -0.068935 0.00229733 0.0163398 0.0385335 0.00106429 0.0242422 0.0179928 0.0122578 0.0709745 -0.0307808 -0.0375004 -0.0138269 -0.040676 0.169331 0.00652561 -0.0248524 -0.0647456 0.0192659 -0.10443 -0.0282548 0.00258785 0.0394994 -0.0619555 0.031973 -0.080796 -0.0170795 -0.00266954 -0.0730761 -0.0164851 0.0342658 -0.104096 -0.0331424 -0.0194096 0.00291526 -0.0348951 -0.0151857 -0.0176046 -0.0237562 0.0351052 -0.00679067 0.0168737 -0.00989371 0.117322 0.036566 0.00584581 -0.0338744 0.0580187 0.0391681 0.00325124 0.00387902 0.0695752 -0.0314616 0.062679 -0.0442876 0.0166379 0.0282487 -0.0424562 0.0146261 0.0645946 -0.0737254 -0.00226816 0.0108374 0.0336898 -0.00294281 0.0193291 0.0131797 0.00816658 0.0657107 0.023559 -0.00317185 0.127028 0.0433228 0.012747 -0.0891173 0.0566007 0.0463729 0.0091706 0.0161895 0.0760509 -0.0247279 0.0958898 -0.0370676 0.0235984 0.0350622 -0.0345036 0.0211002 0.0711618 -0.0670001 0.0044876 0.0181606 0.0404154 0.0038315 0.0263557 0.0198056 0.015119 0.0723563 -0.0269234 0.100443 0.0196789 -0.0109752 -0.0506606 0.0330589 0.0222762 -0.0145329 -0.0131544 0.052267 -0.0835826 0.0452438 -0.0607583 -0.000208954 0.0113393 -0.0710701 -0.00484674 0.0477963 -0.137271 -0.0203525 -0.00580388 0.0168332 -0.0197868 0.00241451 -0.00747629 -0.00887145 0.0488739 0.127072 0.0464602 0.0157873 -0.0238797 0.059991 0.0491446 0.0123402 0.0138181 0.0792 -0.021516 0.0719949 -0.0352734 0.026544 0.0380883 -0.0433463 0.0248454 0.0745168 -0.0638987 0.00767348 0.0214746 0.0451144 0.006953 0.0293233 0.022482 0.0180301 0.0755868 -0.0853556 -0.116554 -0.16038 -0.0677243 -0.148608 -0.114918 -0.0682938 -0.055087 -0.147993 -0.0478887 -0.1649 -0.127926 -0.0971835 -0.160398 -0.107985 -0.0541556 -0.189156 -0.123644 -0.10954 -0.0838975 -0.136989 -0.114949 -0.104547 -0.120667 -0.0533203 -0.0307016 -0.0703966 0.0133282 0.00160381 -0.0341748 -0.0371401 0.0329285 -0.0679601 0.0256822 -0.0801867 -0.0199914 -0.00841171 -0.0779356 -0.0226098 0.0280855 -0.110036 -0.0407782 -0.0256861 -0.00285338 -0.0400903 -0.0197284 -0.0235453 -0.0297083 0.0291741 -0.0544025 0.0439549 0.0334323 -0.00349991 -0.00420173 0.0632279 -0.0372564 0.0614199 -0.0496706 0.0134285 0.0223947 -0.0471728 0.00855883 0.0589606 -0.0795756 -0.00814832 0.005537 0.027817 -0.00877168 0.013477 0.0072752 0.00218379 0.05983 0.0835991 0.073449 0.0361872 0.0318889 0.10288 0.00242254 0.217352 -0.0102595 0.0474067 0.0622641 -0.00744183 0.048236 0.0982271 -0.0399817 0.031575 0.045353 0.0674334 0.0310243 0.0533536 0.0469005 0.0422036 0.0993091 -0.0107027 -0.187601 -0.0460947 0.0144906 -0.0812706 0.0123052 -0.0940383 -0.0333119 -0.0220075 -0.0922238 -0.0359864 0.0148591 -0.123076 -0.0565522 -0.0442517 -0.0162761 -0.0538123 -0.031334 -0.0369485 -0.0465871 0.0156517 -0.0368293 -0.069983 0.0270723 -0.07052 0.0245467 -0.085813 -0.0243727 -0.0112016 -0.0818831 -0.0252048 0.0258769 -0.112568 -0.0431627 -0.0294113 -0.00560185 -0.045128 -0.0388288 -0.026285 -0.0388534 0.0264176 0.0013391 0.065878 -0.0338764 0.0597556 -0.0462786 0.0142265 0.0259259 -0.043908 0.0119426 0.0624897 -0.0761847 -0.00519095 0.00872535 0.0312533 -0.00538591 0.0169191 0.0107748 0.00262094 0.064172 0.073191 -0.0351991 0.0765752 -0.0494946 -0.00750979 0.0242923 -0.0461031 0.00960648 0.0613973 -0.0774798 -0.0064549 0.0073442 0.0299199 -0.00471085 0.030081 0.00926007 0.00756171 0.0627864 -0.100448 -0.0064013 -0.117181 -0.0538154 -0.0444295 -0.112584 -0.0526104 -3.28561e-07 -0.142085 -0.0771869 -0.029337 -0.035475 -0.137017 -0.0276222 -0.0558333 -0.231274 -0.00899415 0.0933499 -0.0123556 0.0480863 0.0596291 -0.0226635 0.0463899 0.0956891 -0.0523287 0.0293013 0.0429486 0.0649554 0.0286109 0.0507052 0.055568 0.0395603 0.0968664 -0.109305 -0.0493533 -0.0342004 -0.103589 -0.0481534 0.00250694 -0.135263 -0.0646766 -0.0513975 -0.0285358 -0.0664937 -0.0437949 -0.0491219 -0.0553222 0.00343016 0.0446103 0.104979 0.057339 0.0664152 0.108083 -0.0301139 0.0436777 0.0557421 0.0776439 0.0420532 0.0645966 0.0874777 0.0554384 0.112652 0.0132004 -0.0550971 -0.00231725 0.0487868 -0.0902458 -0.0193089 -0.0057238 0.0171091 -0.0205795 0.00270121 -0.00277715 -0.00810492 0.0519706 -0.0679492 -0.0144051 0.036624 -0.10177 -0.0361451 -0.0227718 0.00546006 -0.0326976 -0.00956458 -0.0153835 -0.0205808 0.0386885 0.0603286 0.105706 -0.0328078 0.0392748 0.0500545 0.0752333 0.0393049 0.0613337 0.14268 0.0502597 0.109617 0.0503844 -0.0885421 -0.025195 -0.0249814 0.0195748 -0.0170593 0.00741724 -0.00968189 -0.00898873 0.0551296 -0.137629 -0.0676826 -0.0538837 -0.0311361 -0.0746572 -0.0498791 -0.0516233 -0.067775 -0.000439635 0.0719165 0.0852856 0.107148 0.0708415 0.0929293 0.0890634 0.0818142 0.138767 0.0791063 0.0360704 -0.000620475 0.0274601 0.0152611 -0.032404 0.109398 0.0225294 -0.0132464 0.0193933 0.0144198 -0.104693 0.093078 -0.0366175 -0.0145152 -0.0206478 -0.0256643 0.0320761 0.0361298 0.0165177 0.0455229 0.12325 -0.00595988 -0.1842 0.0367561 -0.00550064 0.0531385 0.298062
label 65 66 67 68 69 70 71 72 73 74 75 76 77 78 79 80 81 82 83 84 85 86 87 88 89 90 48 49 50 51 52 53 54 55 56 57
nr_sv 14 21 10 9 14 11 9 14 9 7 15 5 12 13 14 12 18 9 18 8 6 10 12 13 10 13 7 8 14 13 9 15 16 7 12 16
SV
0 0 0 0 0 0.03677075863448628 0 0 0.01377763327336156 0 0 0 0 0 0 0 0 0 0 0 0.00541569501859435 0 0.02644383726678521 0.003400322671929946 0 0 0 0 0 0 0 0 0 0 0 1:7 2:7 3:6 4:6 5:6 6:6 7:3 8:6 9:5 10:2 11:8 12:6 13:4 14:7 15:4 16:6 17:9 18:10 
0 0 0 0 0 0 0 0 0 0 0 0 0 0 0 0 0 0 0 0 0 0 0 0 0.03834830636140413 0 0 0.01671846477058346 0 0 0 0 0 0 0 1:7 2:7 3:6 4:6 5:6 6:6 7:3 8:6 9:6 10:1 11:9 12:6 13:4 14:6 15:4 16:6 17:9 18:10 
0.1543183628960477 0.1356547426554865 0.1419461455849864 0.1325586234933875 0.1423439278333982 0.1230759796483067 0.1379862756396803 0.1368533297805899 0.132340588994259 0.1521682034317915 0.1406073120320265 0.1330318089326734 0.1312861464036671 0.1447968979518005 0.1456091166656017 0.1392849963648603 0.1252205466509811 0.1780743044712763 0.1318884838596261 0.1468827065055784 0.1431828258279828 0.09694100532384153 0.1739209253813072 0.1089720600104875 0.181397787489165 0.1521941824431341 0.1258324366689334 0.1934080364000193 0.2025369233424416 0.1490120035194106 0.1501030605072208 0.2529803386194067 0.1376927738472413 0.2418052641090804 0.1985398278747758 1:7 2:7 3:6 4:6 5:5 6:5 7:3 8:6 9:6 10:2 11:9 12:6 13:4 14:7 15:4 16:5 17:8 18:10 
0 0 0 0 0 0 0 0 0 0 0 0 0 0 0 0 0 0 0 0 0 0 0.0234273770614309 0 0 0 0 0 0 0 0 0 0 0 0 1:7 2:6 3:6 4:6 5:6 6:6 7:3 8:6 9:6 10:2 11:9 12:6 13:3 14:7 15:4 16:6 17:9 18:10 
0.2690405806018039 0.2675961602697218 0.2732656426199655 0.2680194226357632 0.2699289101645378 0.2790382950714546 0.2624337571499256 0.2706130314338618 0.2599587449108243 0.2958537048301157 0.2715095914482753 0.2709806465654309 0.2570174463117022 0.2776240802036822 0.271049763932297 0.2646024840022191 0.2831273355960466 0.2597025993880506 0.256773215483847 0.2779885728982645 0.2512701009367774 0.3687386428585099 0.1410157848676144 0.2742029239864652 0.2273885322787115 0.2772010278767503 0.2460711864381877 0.2141285440064062 0.2182294378370385 0.2133663512281636 0.2509210254920261 0.2060866071910279 0.2685315849129811 0.2039195181910339 0.2533416964663136 1:7 2:7 3:6 4:6 5:5 6:5 7:3 8:6 9:6 10:2 11:9 12:6 13:4 14:6 15:4 16:5 17:9 18:10 
0 0 0 0 0 0 0 0 0 0 0 0 0 0 0 0 0 0 0 0 0 0 0 0 0 0 0 0 0 0.1835951643421011 0 0 0 0 0 1:7 2:7 3:6 4:6 5:6 6:6 7:3 8:6 9:5 10:2 11:9 12:6 13:4 14:7 15:3 16:6 17:9 18:10 
0.1769619647533306 0.1690974521118793 0.1753169838087849 0.166968111469249 0.1715632599042761 0.1516708590063714 0.1713938431839158 0.1742609317468114 0.1613424409071762 0.1899690902569472 0.1816910567287969 0.1709903453960988 0.1654136045480371 0.1742659793107616 0.1755009113077053 0.1627474904654182 0.1749217802420387 0.1667121608825647 0.1649736685175397 0.1828774617934331 0.1192490874700917 0.1195298494030675 0.1601617504420155 0.1272381164451815 0.1400772788624668 0.1752542710165213 0.1576282968994715 0.1367229712674699 0.1354923518587465 0.04094016786837418 0.1645899211300401 0.1405615212183033 0.1688929469779457 0.1319085119280997 0.1579637237173769 1:7 2:7 3:6 4:6 5:6 6:6 7:3 8:5 9:6 10:1 11:8 12:6 13:4 14:7 15:4 16:6 17:9 18:9 
0 0 0 0 0 0.01133625882529811 0 0 0 0 0 0 0 0 0 0 0 0 0 0 0 0 0 0 0 0 0 0 0 0 0 0 0 0 0 1:7 2:7 3:6 4:6 5:6 6:6 7:2 8:6 9:6 10:2 11:8 12:6 13:4 14:7 15:4 16:6 17:9 18:10 
0 0 0 0 0 0 0 0 0 0 0 0 0 0 0 0 0 0 0 0 0 0 0 0 0 0 0 0 0 0.1126419935934036 0 0 0 0 0 1:7 2:6 3:6 4:6 5:6 6:6 7:3 8:6 9:6 10:2 11:9 12:6 13:4 14:7 15:3 16:6 17:9 18:10 
0.1704883659384491 0.1684614015446408 0.1735100966445655 0.1509307489759627 0.1677485254892629 0.1465607835621574 0.1673695387194355 0.170810084142248 0.1671665548928543 0.1695765240638231 0.1708539016916667 0.1714100435541794 0.1617577605524648 0.1746895389769981 0.1743399132904159 0.1643901856852748 0.143311527352121 0.1651755742217062 0.1654023998777484 0.1783778725936259 0.1525623451372655 0.1356911994440869 0.09104213052015772 0.1367640067702542 0.1292588503068677 0.1791583365640621 0.156681555733923 0.1233792974064422 0.1326039221042652 0.05415818904632493 0.1635727267955455 0.1355817479675841 0.1696408483691459 0.1362868714103461 0.1633940944197331 1:7 2:6 3:6 4:6 5:6 6:6 7:3 8:5 9:6 10:2 11:9 12:6 13:3 14:7 15:3 16:6 17:9 18:10 
0.03050121479134753 0.02299737027989112 0.02751397788843408 0.01173089498570642 0.01997296867538391 0.02340684881844204 0.03116822107559463 0.02474070397098574 0 0.03582622406933623 0.03115978381507147 0.03028888120091016 0.03498572735564398 0.02147378603894961 0.02723567939710419 0.01786156387470132 0.05500959922768622 0.02304322777939325 0.02628229310945654 0.03558193418333856 0.009541239995911331 0.07417767257370353 0 0 0.002515975269751795 0.02315024918918568 0.02282005401013689 0.01959978102739308 0.01797075685832706 0 0.02241575156594432 0.0271372268035152 0.02460507188053664 0.02010562787698186 0.01904934696756283 1:7 2:6 3:5 4:6 5:6 6:6 7:3 8:6 9:6 10:2 11:9 12:5 13:4 14:7 15:4 16:5 17:9 18:10 
0.3055084132984414 0.2834330448692287 0.2941720276394315 0.3367632968696276 0.3225688624296409 0.2790521808721835 0.2795881130677158 0.286136225631678 0.3085027372697588 0.3550900830468706 0.2958905996803496 0.2819892776687666 0.2728159185768519 0.2971426369187449 0.2982037579810404 0.2826665549604659 0.3213163770020241 0.3131842721944801 0.2718553560875822 0.297812281215563 0.3349536465641806 0.3316665214171074 0.6751186623329669 0.3098501627937926 0.355812342845833 0.3034395536668917 0.2607239670742851 0.2952643013694129 0.3002061202673273 0.4020187965793807 0.286339250793181 0.3049877428941009 0.2888655982408883 0.2979388234831788 0.3031254588160353 1:6 2:7 3:5 4:6 5:6 6:6 7:3 8:6 9:6 10:2 11:9 12:5 13:4 14:7 15:3 16:6 17:9 18:10 
0.2910019007966784 0.2847713936734891 0.2880861430162343 0.2792822808516863 0.2855667687719812 0.3143479689890226 0.2711431477797825 0.2792615537093314 0.2830247958578282 0.3115093146809576 0.2849968010912056 0.2766786436355838 0.2635025123039228 0.3029238169988562 0.2859803239516747 0.3003791327542457 0.2723615155163407 0.3208786444556408 0.2670785979452104 0.2888079299789649 0.2929141190357818 0.3128096821762815 0.3890856011426786 0.3034409553426713 0.3131289847639006 0.2983184473525038 0.2550469599780337 0.3383464311250248 0.3462280104843462 0.3686540856516303 0.2803475741686361 0.317589127652632 0.2810742805154647 0.3258517312574597 0.321001284454919 1:7 2:6 3:5 4:6 5:6 6:6 7:3 8:5 9:6 10:2 11:8 12:6 13:4 14:7 15:4 16:6 17:8 18:9 
0.05925508002785992 0.05899029322540939 0.06072217485978651 0.04760269865839108 0.05536543846197164 0.03916791314185315 0.05592490716421702 0.06651063770450698 0.06069164004599813 0.05436463390332445 0.06140681477935502 0.0576058226916048 0.05343256154173425 0.06319076512115041 0.0623745675372543 0.06084355247749043 0.03850560790955922 0.06964759219737077 0.05721189963285481 0.06238210347256584 0.05925692798549041 0.02601320055330488 0.02100063261358612 0.09895533352118174 0.08553226737114052 0.06710001967244811 0.05977182567068197 0.08880083704115092 0.08852406669524875 0.08430209131242412 0.06723775328544691 0.07331144911291547 0.06759677865820199 0.07570209471631426 0.07695786004029395 1:7 2:7 3:6 4:5 5:6 6:6 7:3 8:6 9:6 10:2 11:9 12:6 13:4 14:6 15:4 16:6 17:9 18:10 
-0 0 0 0 0 0 0 0 0 0 0 0 0 0 0 0 0 0 0 0 0 0 0 0 0 0 0 0 0 0 0.03246247026795199 0 0 0 0 1:2 2:6 3:6 4:6 5:4 6:6 7:6 8:5 9:6 10:2 11:8 13:7 14:7 15:7 16:5 17:5 18:10 
-0 0 0.6647452075603804 0 0 0 0 0 0 0 0.08154193677713917 0 0 0 0.3149770622171909 0 0 0 0 0 0 0 0 0 0 0 0 0 0 0 0 0 0 0 0 1:2 2:6 3:5 4:6 5:4 6:6 7:6 8:6 9:6 10:2 11:7 13:7 14:7 15:7 16:6 17:5 18:10 
-0 0 0 0 0 0 0 0 0 0 0.0509471899178951 0 0 0 0 0 0.6901975774874252 0.3703889430884769 0 0 0 0 0 0 0 0 0 0.04254821263339576 0 0 0 0.4161016271754269 0 0.161008226336715 0 1:2 2:6 3:6 4:6 5:4 6:6 7:6 8:6 9:5 10:2 11:8 13:7 14:6 15:7 16:6 17:5 18:10 
-0 0 0 0.06291852957120599 0 0 0 0 0 0.3552462361639445 0 0 0 0 0 0 0.2102057083125115 0 0 0 0 0 0 0 0 0 0 0 0 0 0.3909787143461528 0 0 0 0 1:2 2:6 3:6 4:5 5:4 6:6 7:6 8:6 9:5 10:2 11:8 13:7 14:7 15:6 16:6 17:5 18:9 
-0 0 0.01873153191480167 0 0 0 0 0 0 0 0 0 0 0 0 0 0 0 0 0 0 0 0 0 0 0 0 0 0 0 0 0 0 0 0 1:2 2:6 3:6 4:5 5:4 6:6 7:6 8:6 9:6 10:2 11:8 13:6 14:7 15:7 16:6 17:5 18:10 
-0 0 0 0.4789615827634734 0.07381624790538639 0 0 0 0 0.6286332241684502 0 0 0 0 0 0 0.01699343915529656 0 0 0 0 0 0 0 0 0 0 0 0 0 0 0 0 0 0 1:2 2:6 3:5 4:6 5:4 6:6 7:6 8:5 9:6 10:2 11:7 13:7 14:7 15:6 16:6 17:5 18:10 
-0.1858274025990185 0.1784602311469839 0 0 0.09603024511504336 0.1813872628846866 0.440647176424062 0.1797940909538504 0.1767230625684431 0.4600134370508085 0.1313398684245988 0.2347312125893085 0.2902793037854031 0.1863651371843576 0 0.1768947559618084 0.6323460519799239 0.01256445584759786 0.172284111206387 0.329695489928905 0.1757012936643722 0.2325706543661268 0.2020636892472653 0.1705685715488688 0.1897476014040768 0.1611970915799391 0.1635402904950315 0.1759477950249616 0.2067291113795084 0.1845290259607705 0 0 0.1781570374961996 0.132026890777528 0.1538976732345936 1:2 2:6 3:5 4:6 5:4 6:6 7:5 8:6 9:6 10:2 11:8 13:7 14:7 15:6 16:5 17:5 18:10 
-0 0 0 0 0 0 0 0 0 0 0.00828297708140736 0 0 0 0 0 0 0.1202041078129462 0 0 0 0 0 0 0 0 0 0 0 0 0 0.0581471990442782 0 0.0126222400540255 0 1:2 2:6 3:5 4:6 5:4 6:6 7:6 8:6 9:6 10:2 11:8 13:7 14:7 15:7 16:6 17:5 18:9 
-0.3796438392509549 0.370773572825269 0.3147180151435393 0.5917537874423203 0.4939168705185464 0.3691147357380082 0.3175306875428707 0.376939963255942 0.366619938432945 0.4637447165530376 0.3934091380874936 0.3672938820514881 0.3560373224765656 0.3905817518000614 0.4148540759697708 0.3733995780991762 0.245320229029508 0.3438478288203391 0.3581275924849047 0.3548142389113542 0.3675077346633841 0.4494071165921841 0.4431079515474832 0.3578738586003894 0.3863616324924291 0.4806410558780427 0.3425539213853923 0.3638373850390351 0.353646672070384 0.3838285229686766 0.4029788441663661 0.4010635506041366 0.3758244169419289 0.5681200397137478 0.431929441908138 1:2 2:6 3:6 4:5 5:4 6:5 7:5 8:6 9:6 10:2 11:8 13:5 14:7 15:6 16:6 17:5 18:10 
-0.3618428092356931 0.3718594098278874 0.3322334333706679 0.1812360720739986 0.3602270247164627 0.3697203599874183 0.48650449830155 0.3750612316736701 0.3642474860319624 0.6849280803661733 0.3823132233566942 0.4286386414417674 0.420262331307826 0.3898578392439868 0.2782691213213281 0.3725422283389259 0.5440669206674908 0.4484494858936161 0.3568533840735242 0.4606602337707197 0.3542514448747567 0.3897248775654897 0.3847595229296127 0.3524241835539204 0.3737841453052757 0.3548819300971786 0.3403578051028384 0.3624090172670316 0.3714458089800223 0.3814812749125095 0.3594883008060328 0.3884409064642123 0.3727270479922313 0.3744067371728804 0.3870294393512911 1:2 2:4 3:6 4:5 5:4 6:6 7:6 8:5 9:6 10:2 11:7 13:6 14:7 15:7 16:5 17:5 18:9 
-0.02751556294464275 0.02760448130121064 0.3046816709577775 0 0.02308370777727876 0.0292840989082029 0 0.02994325045795884 0.02790823686484191 0 0.05370460034060566 0.03545738250618481 0 0.03014595634336914 0.1706239022318117 0.02824916192309115 0 0 0.02771634235918583 0.00380884648674363 0.02716277402081373 0.05835163066818108 0.02002065285611089 0.03920448307041285 0.03512558630798382 0.1276954702404357 0.02626343084976068 0.08112681940203001 0.0694438705963827 0.02932526069478992 0.2001599781426179 0 0.03368184074102604 0.1868253071938585 0.107289595062733 1:2 2:6 3:5 4:5 5:4 6:6 7:6 8:6 9:6 10:2 11:8 13:7 14:6 15:7 16:6 17:5 18:9 
-0.3129217392108249 0.3208323363876264 0 0 0.2234226601083109 0.3145557227030875 0.2668270065160488 0.3202013117082297 0.3114095634866842 0.3670632215727115 0.2786137118722683 0.3173379186106546 0.304929286187455 0.3342426911266876 0.08271821781610057 0.3217922318156466 0 0.08738819367280808 0.3042042582586973 0.3274783094172304 0.2938255971703891 0.3121798043338131 0.311483328618932 0.2983558937020399 0.3075416337882197 0.310386373181726 0.2904127741257523 0.2635924617352372 0.2813840149705382 0.3262034616370192 0.1764987685446468 0.01638695488868389 0.3167678739816298 0.01671394500421147 0.2817018339471197 1:1 2:6 3:6 4:6 5:4 6:6 7:6 8:5 9:5 10:2 11:7 13:7 14:6 15:7 16:6 17:5 18:9 
-0 0 0 0.1077726195091622 0.1626506423754277 0 0 0 0 0 0 0 0 0 0 0 0 0.1365428624172734 0 0 0 0 0 0 0 0 0 0 0 0 0 0 0 0 0 1:2 2:6 3:5 4:6 5:4 6:6 7:6 8:6 9:6 10:2 11:8 13:7 14:7 15:6 16:6 17:5 18:10 
-0.1804909255669682 0.1921596742687795 0.08070452723608297 0 0.0426407420708486 0.189306701299895 0.1028702356370287 0.1952652108120858 0.1895627189772603 0 0.1628307114511392 0.1389778103539417 0.1082736433642772 0.2038949018305228 0.1576399831035506 0.1931427263879365 0 0.5443944664080247 0.1829071476426503 0.1421592712021758 0.1700973474872574 0.1198972614874341 0.1489666202176225 0.1739948030713752 0.1728534507344526 0.2225449168380365 0.1764919961234891 0.1810930118440128 0.2127869396443644 0.1974966675209932 0.3784392490353515 0.3726437846330909 0.1919977649479542 0.5614953392619078 0.2673791582573972 1:2 2:6 3:6 4:6 5:3 6:6 7:6 8:6 9:6 10:2 11:8 13:7 14:7 15:7 16:6 17:4 18:10 
-0 0 0 0 0 0 0 0 0 0.4230550607733564 0 0 0 0 0 0 0.0702503723123223 0.1004648322866088 0 0 0 0 0 0 0 0 0 0 0 0 0 0.3672470871341805 0 0 0 1:2 2:6 3:6 4:6 5:4 6:5 7:6 8:6 9:6 10:2 11:8 13:7 14:7 15:6 16:6 17:5 18:10 
-0 0 0 0 0.06564671097464034 0 0 0 0 0 0 0 0 0 0 0 0 0 0 0 0 0 0 0 0 0 0 0 0 0 0 0 0 0 0 1:2 2:6 3:6 4:6 5:4 6:6 7:5 8:6 9:6 10:2 11:8 13:7 14:7 15:6 16:6 17:5 18:10 
-0 0 0 0 0 0 0 0 0 0 0 0 0 0 0 0 0 0 0 0 0 0 0 0 0 0 0 0 0 0 0 0 0 0.004469520670751979 0 1:2 2:6 3:5 4:6 5:4 6:6 7:6 8:6 9:6 10:2 11:8 13:6 14:7 15:7 16:6 17:5 18:10 
-0 0 0.6260618045558618 0 0 0 0 0 0 0 0 0 0 0 0 0 0 0 0 0 0 0 0 0 0 0 0 0 0 0 0 0.001819554231207488 0 0 0 1:2 2:5 3:6 4:6 5:4 6:6 7:6 8:6 9:6 10:2 11:8 13:7 14:7 15:7 16:6 17:5 18:9 
-0 0 0.8606987106454391 0 0 0 0 0 0 0 0 0 0 0 0 0 0 0 0 0 0 0 0 0 0 0 0 0 0 0 0 0 0 0 0 1:2 2:6 3:6 4:6 5:4 6:6 7:6 8:6 9:6 10:2 11:8 13:7 14:7 15:7 16:6 17:5 18:10 
-0 0 0 0.0906807275997982 0 0 0 0 0 0.6442687768457173 0 0 0 0 0.4861668158709559 0 0.1230905522801286 0 0 0 0 0 0 0 0 0 0 0 0 0 0 0 0 0 0 1:2 2:5 3:6 4:6 5:4 6:6 7:6 8:6 9:6 10:2 11:8 13:7 14:7 15:6 16:6 17:5 18:10 
-0.008833604295856156 0.01290712875916617 0 0.6915732058180905 0.1492594783779733 0.01281701041584882 0 0.01416394235968011 0.01340753845459827 0.1356927871442409 0.04720677876491564 0 0 0.01133026907828537 0.2583414597234462 0.009148345325376728 0 0.0238889378072026 0.01468535499525562 0.02463017200404942 0.02427297607708282 0.001747052705091949 0.05106716051130131 0.01809002789058959 0.05358768004380887 0 0.01260352459652713 0.04960943969440168 0.04616358767738932 0.01401608427528095 0 0 0.01808834201357938 0 0.02096378629405458 1:1 2:6 3:6 4:6 5:4 6:6 7:6 8:6 9:5 10:2 11:8 13:7 14:7 15:6 16:6 17:5 18:9 
-0.03159125450298893 -0.02715626786959032 0.01949061617630315 0.0307317147242626 0.02961901238977187 0 0.02952808896245743 0.03122571776275472 0.1305051483135068 0.03265226512936251 0.02440334316668223 0.03018040674795371 0.02820330041108593 0 0.02182206845812669 0.2173357232049389 0.03100959142519023 0.05644210609454278 0.03632917467872507 0.03017002998165237 0.04880172940468225 0.03066831741018804 0.06926855397453331 0.1032995893635047 0.07676005851617455 0.03356340894182332 0.02844631601886658 0.096268468387158 0.1052992834538277 0.03239455219090773 0.02836112890050151 0.02804402651799006 0.06008220626384735 0.03308166729452265 0.03953235245967595 1:3 2:6 3:6 4:7 5:7 6:7 7:7 8:6 9:5 10:5 11:4 12:8 13:8 14:8 15:7 16:8 17:6 18:10 
-0.4691199678123303 -0.4941463925991074 0.4834229708449047 0.4674818257285631 0.4841575039829839 0.4896749795180254 0.468114323971323 0.4797722049384647 0.4580711102251956 0.5266510883295994 0.4857771090836185 0.4738132227563079 0.4559941166124791 0.4472191924732722 0.4857400467043185 0.7838249587386406 0.473418259213411 0.5023601333733341 0.4554764870685954 0.5018079340152567 0.4709411684694028 0.4805908263786174 0.5060309959470272 0.4559507339142712 0.4879735977728762 0.5011670793624925 0.4369733446291795 0.4687690022351801 0.4770252808058093 0.4867242480066231 0.4719012780935282 0.4805919147977276 0.4749596730312485 0.4840002943536335 0.5017699272654292 1:3 2:6 3:6 4:7 5:7 6:7 7:7 8:4 9:6 10:5 11:4 12:8 13:7 14:8 15:8 16:7 17:6 18:10 
-0.07997725426065279 -0.08147741780941932 0.06585258146471297 0.08125720377697829 0.08196574014014477 0 0.08427951914151897 0.08494804564554653 0.07114168032235207 0.08745543787091208 0.0805068104547557 0.08436871494499466 0.0815044872542328 0 0.07607015499112936 0 0.07757208035947522 0 0.07653384139687847 0.08683490533315487 0.06247246257099355 0.08146758475156669 0.066002631346428 0.01811747305743095 0.05804385367636941 0.08765229229316679 0.07676165595015005 0.02388302630265577 0 0.08610365642729341 0.06718265487690803 0.06309079967583564 0.07248286174814816 0.04192861164959624 0.05577296139272499 1:2 2:6 3:6 4:7 5:7 6:7 7:7 8:6 9:6 10:5 11:4 12:8 13:8 14:8 15:8 16:8 17:6 18:9 
-0.04326021893636819 -0.04694558079021391 0.05609697673564785 0.0423658342681764 0.04345856308581273 0 0.04350377847613427 0.04168397891597254 0.03219017390274465 0.05049199607643066 0.05193339899446364 0.04472897832683712 0.04151529288578824 0.3292674860463253 0.04240188446064254 0.05232006411762258 0.040908376440696 0.1363086762325247 0.03442481468203853 0.05060771152851896 0.04587908920116782 0.04633156727725601 0.03435304486941864 0 0.03567057055084113 0.04706775243670175 0.04079324992105191 0.08619130562693925 0.04455770533816046 0.04617740923363784 0.04291729983778956 0.05953566832371134 0.03521813721820159 0.04553820426035308 0.1087771251305871 1:3 2:6 3:6 4:7 5:7 6:6 7:7 8:6 9:6 10:5 11:4 12:7 13:8 14:8 15:8 16:8 17:6 18:10 
-0.04711988314795415 -0.04243789734548301 0.06009039936981838 0.04373034926312325 0.04554731332730101 0 0.04282414958703214 0.04593329695364368 0.0297690819752252 0.04857175388409075 0.05691257796155647 0.04474328681460052 0.04129629477639803 0 0.03880551040170575 0.04766642005202808 0.04441788030972869 0.009390124159917326 0.03074484872499321 0.04579877471058265 0.03952860849855876 0.04280372834744069 0.06510299029340212 0 0.02650811044894819 0.04702205285952114 0.03882500083114333 0.0308005518779602 0.01265365645660624 0.04524960299802867 0.0385540123027672 0.04224400824311136 0.01878655542211202 0.04136668124131254 0.01628802882963906 1:3 2:6 3:6 4:7 5:7 6:7 7:6 8:6 9:6 10:5 11:4 12:7 13:8 14:8 15:8 16:8 17:6 18:10 
-0.4235459064688772 -0.4483323052780036 0.4354385491800863 0.4274881783322241 0.4415485089123019 0.3416550698940247 0.4282358869959407 0.4352065926324927 0.3905415724009976 0.4776413957328169 0.4427542215399263 0.4334445748889174 0.4168672325856626 0.401343314392915 0.4417626202797813 0.4378218744032481 0.42982673936481 0.3568751592521786 0.405920811959073 0.4568296506117061 0.3712853808226367 0.436079841247147 0.4105770414148473 0.3007504314594956 0.3866113939793436 0.4588168062282562 0.3982169897445788 0.3309454886460429 0.325133772464814 0.4444069188302131 0.4107853293877908 0.4246205830020005 0.3815981265416322 0.4047941292586377 0.4326454721331728 1:3 2:5 3:6 4:7 5:7 6:7 7:7 8:6 9:5 10:5 11:2 12:8 13:8 14:8 15:8 16:8 17:6 18:10 
-0 -0 0 0 0 0.83206991661832 0 0 0 0 0 0 0 0.9599993399085058 0 0 0 0 0 0 0.00803575975454509 0 0 0.04136399337052643 0.02483915846189791 0 0 0.0294962776713786 0.0853214879900626 0 0 0 0.02200453065909272 0.0001881082740496764 0.00301096891901061 1:3 2:6 3:6 4:7 5:7 6:7 7:6 8:6 9:6 10:5 11:4 12:8 13:8 14:8 15:8 16:7 17:6 18:10 
-0.04304700847057812 -0.05946981420722174 0.06139361868584621 0.04688431341991237 0.05465092622694235 0 0.0431215394435791 0.04224948286781183 0.03346325184019038 0.05467464631348848 0.05224583495626588 0.04185151917093683 0.04157398109011386 0.4283834971645883 0.08249558393658656 0.08353722187917885 0.05042684020382028 0.1500337925376889 0.03446829433240575 0.04649748500025683 0.05190455617570852 0.04616004758272816 0.02918530253673468 0.07200920850931385 0.03567057055084123 0.045092855123293 0.0405849647627828 0.07128243708254511 0.1230072035286203 0.04356100876978653 0.0785735823954288 0.08029680767885206 0.03399022277049561 0.1230558358460951 0.08012024884321714 1:3 2:6 3:6 4:7 5:6 6:7 7:7 8:6 9:6 10:5 11:4 12:7 13:8 14:8 15:8 16:8 17:6 18:10 
-0.2533403650299971 -0.2746311586178835 0.2813560279692874 0.2576000261435674 0.267302101544066 0.08208288434955127 0.2545002243831966 0.2683201968746275 0.2607115667711375 0.2939603075155648 0.2645515399740828 0.2586122722053509 0.2491758248136868 0 0.2760010479588814 0.1257545650259888 0.2629742216423993 0.3984273334093194 0.2942259653891627 0.2737551784115818 0.275019977506525 0.2650813658915344 0.2902980998318809 0.4470104954235044 0.3267370821472038 0.2740051535470729 0.2397405502409031 0.3291058698578332 0.3263672980447095 0.2660483892735436 0.2760645684560843 0.2645265534337414 0.3615606123606744 0.2684195662182473 0.280130496576642 1:2 2:5 3:6 4:7 5:7 6:7 7:7 8:6 9:6 10:5 11:4 12:7 13:8 14:7 15:8 16:8 17:6 18:10 
-0 -0 0 0 0 0 0 0 0 0 0 0 0 0.6372427332459076 0 0.07422196556125737 0 0 0 0 0 0 0 0 0 0 0 0 0 0 0 0 0 0 0 1:3 2:5 3:6 4:7 5:7 6:6 7:7 8:6 9:6 10:5 11:3 12:7 13:8 14:8 15:8 16:8 17:6 18:10 
-0.1096932331295259 -0 -0.1010118147349326 0.221800151556924 0.2721985269448919 0.1016812383136572 0.1013518664355583 0.1036821160758826 0.1027787957025725 0.1793948698770757 0.2129449662346503 0.1021234474920886 0.1004380308536422 0.1089601411468002 0 0.1000702926871812 0.1286001274658203 0.02995571986981201 0.09908640344946014 0.1090387441422793 0.1052258487305633 0.1102181532619026 0.1415771543376318 0.09765746914972144 0.119695916059911 0.136924234079631 0.0931194362178942 0.1395046683301557 0.1538083342202553 0.1070183577365782 0 0.1211660797062115 0.1016652696684209 0.1589961287035961 0.1350861358216776 1:3 2:5 3:6 4:6 5:6 6:6 7:5 8:6 9:6 10:3 11:8 13:7 14:8 15:7 16:8 17:4 18:10 
-0.3375186972797721 -0.8835829291838779 -0.3380146039212449 0.3214945334170397 0.3272745685250573 0.3388000404481706 0.3835849403498039 0.3448318357631616 0.3348939996400084 0.500269641033171 0.3393807686621688 0.3517787531810938 0.346660894670877 0.3588431284405613 0.3008606108646623 0.3412810375621174 0.5247636374291699 0.552935322405308 0.3280626574657809 0.4632259564807946 0.3227559266660996 0.357472775547426 0.3426847070323419 0.3227571646078371 0.3406822642922115 0.3748736172776161 0.3134354765813394 0.3805291099030856 0.4413474662833362 0.3506068288319469 0.2765378026364387 0.3936675523082622 0.3414536748696185 0.6081795650397895 0.4544897931703277 1:3 2:6 3:5 4:5 5:6 6:6 7:6 8:6 9:6 10:3 11:8 13:8 14:8 15:8 16:6 17:4 18:10 
-0.4043319401423339 -0.316480793779722 -0.4208189697846715 0.4676224389711039 0.4252590635178844 0.4112912369786962 0.3972009087157916 0.4166364971574263 0.4056800636781873 0.699488513645897 0.3555445743778862 0.4137083095375139 0.393569872569797 0.444200078626147 0.4228941148297549 0.4237346002109442 0.3895313477347997 0.3669958250563157 0.3973233440260713 0.4259960494884977 0.3891006598844849 0.4165365649424713 0.4173492636580396 0.3940171665203775 0.4110607755113294 0.4850013670226729 0.3793948307169118 0.3720758582552337 0.3801406024755093 0.4249213774764588 0.4013328069955565 0.04527898124876906 0.4180003648839488 0.1464609455674787 0.3903386194695219 1:3 2:4 3:6 4:5 5:6 6:6 7:6 8:6 9:6 10:3 11:7 13:8 14:7 15:7 16:8 17:4 18:10 
-0 -0 -0 0 0 0 0 0 0 0 0.1304778566218226 0 0 0 0 0 0 0 0 0 0 0 0 0 0 0 0 0 0 0 0 0 0 0 0 1:3 2:6 3:6 4:6 5:6 6:6 7:6 8:5 9:6 10:3 11:7 13:8 14:8 15:8 16:8 17:4 18:10 
-0.0989036659812918 -1 -0.1004263135615641 0.07776503228299637 0.09987347150061399 0.1015893126044686 0.1038968225160602 0.1059493217505616 0.1019478841332952 0.1473462695673485 0.1636876515849103 0.1028309266314402 0.09603158124056044 0.1044327979274103 0.5936247500461806 0.1050651785463308 0.2667550689819183 0.73373002997423 0.09785108767408252 0.102009670302829 0.09458499892684727 0.1107788088967061 0.08688478816563128 0.1019482275914799 0.1086841414525934 0.1458536323795463 0.09591544881666558 0.170462688788197 0.1543678348868787 0.104553749503405 0.2215569013597908 0.9295981307195561 0.1042329906849667 0.6284990754592525 0.2710506175012797 1:3 2:5 3:6 4:6 5:5 6:6 7:6 8:6 9:6 10:3 11:8 13:7 14:7 15:8 16:8 17:4 18:10 
-0.0636625638280528 -0.701112200392403 -0.07140333826288001 0.09316754557081082 0.05929992970531461 0.06880492212644382 0.05856670966615308 0.06763157231199336 0.06555604196807351 0.1504224887654874 0.00910128517624275 0.06427867511935674 0.0612606061302117 0.06900184898989142 0.1858663092205295 0.06367526631448929 0.009019020621634191 0.08599838399769263 0.06561392873450525 0.04799474553134012 0.07398520933282102 0.06620626136497629 0.08843820610747075 0.06785585845463601 0.08210663397041588 0.0346769141835845 0.06171824253359984 0.0543001588040932 0.004560595539926469 0.06941524395164658 0.7123674844355725 0 0.07157617992209675 0 0 1:2 2:6 3:6 4:5 5:6 6:6 7:6 8:6 9:6 10:3 11:8 13:7 14:8 15:8 16:7 17:4 18:10 
-0.4204230917012121 -0.1539431489688909 -0.4314667001613139 0.3988164773472436 0.4199347624970453 0.4265708120326743 0.4092934556279631 0.4340283319522885 0.4218080700585577 0.4178707183800461 0.4946959223431159 0.4257411613284935 0.4057456351838165 0.453495987120675 0.289914431275397 0.4313217929043394 0.3364464310042686 0.3794900685618849 0.4121438950921108 0.4331729760845786 0.40407914144421 0.4251474138603408 0.4313655961308669 0.4067992399385991 0.4259420664120189 0.4405857739994904 0.3933335389309495 0.4297758262305953 0.4401213642557124 0.441174903028508 0.358873607342671 0.3199218958886986 0.4335256640690385 0.332170982837094 0.4379945369284914 1:3 2:6 3:5 4:6 5:6 6:6 7:6 8:5 9:6 10:3 11:8 13:8 14:8 15:8 16:8 17:4 18:8 
-0 -0.147455829059657 -0 0 0 0 0 0 0 0 0.02959670883293527 0 0 0 0.2097254588701326 0 0 0 0 0 0 0 0 0 0 0 0 0 0 0 0 0 0 0 0 1:3 2:6 3:6 4:6 5:5 6:6 7:6 8:6 9:6 10:3 11:8 13:8 14:8 15:8 16:8 17:4 18:9 
-0 -0 -0 0 0 0 0 0 0 0 0 0 0 0 0 0 0 0.1851338877232401 0 0 0 0 0 0 0 0 0 0 0 0 0.004121110435919825 0.2710866906780015 0 0 0 1:3 2:6 3:6 4:6 5:6 6:6 7:6 8:5 9:6 10:3 11:8 13:8 14:8 15:7 16:8 17:4 18:10 
-0.08795275098607803 -0 -0.1012518854455367 -0.2082931720052894 0.7464075927452403 0.09428202681787766 0.0962551846808614 0.1001960737496391 0.09667611493099722 0 0.1307175761386414 0.09833556415908842 0.09655147885281269 0.1011144077537994 0.3550781908605955 0.09511031296435501 0 0.1420267586757673 0.09100961246730002 0.1085283839628659 0.1002963542349848 0.1201420720502575 0.1265145287337244 0.1081327719744236 0.1131278681854246 0.09968126205550873 0.08905857253387414 0.1030028947718401 0.1066547753479321 0.1006144189090459 0.1040771293970196 0.0827405071952082 0.09860952820228887 0.08749496268377999 0.1052665208786501 1:2 2:5 3:6 4:6 5:4 6:6 7:6 8:7 9:6 10:2 11:7 13:7 14:7 15:3 16:8 17:8 18:10 
-0 -0 -0 -0.02849717326055019 0.4796770130281031 0 0 0 0 0 0 0 0.006081025006310781 0 0.1967459982548198 0 0 0.03465702794230509 0 0.009415001188928398 0.02278780519330876 0.02703291641496118 0 0.01885904502018309 0 0 0 0.01350065973003361 0.01937709999494745 0.001067070326475171 0.001954780799441301 0.04014746029607136 0.0006584488664349888 0.03208237425597921 0.01090135728367812 1:2 2:6 3:5 4:6 5:4 6:6 7:6 8:7 9:6 10:2 11:8 13:7 14:7 15:3 16:8 17:8 18:9 
-0.1810100844901542 -0.2481574443434643 -0.1747401302577418 -0.209510391507905 0.1816218359587236 0.1777281031354664 0.1305269687107506 0.1748928674310848 0.1770602160469926 1 0.2279278395133552 0.1655664376328071 0.1459941011909474 0.1847989395209058 0.08461696986855066 0.1781220070457115 0.5944209710561744 0.1848638243546678 0.1706663963390748 0.173328076702638 0.1706188621773506 0.1369123716594418 0.1970392167951532 0.1625487894351762 0.1694999181528812 0.168944501419854 0.1608962545354292 0.1715313976004582 0.1699456498082025 0.1770134995903004 0.1312138789711277 0.2017808519681355 0.1774532906722041 0.1574079870560847 0.1816554968607704 1:2 2:6 3:6 4:6 5:4 6:6 7:6 8:5 9:6 10:2 11:7 13:7 14:7 15:3 16:7 17:8 18:10 
-0 -0 -0 -0 0 0 0 0 0 1 0 0 0 0 0 0 0.744961509489352 0 0 0 0 0.04864485581237108 0 0 0 0 0 0 0 0 0 0.0562885936114647 0 0 0 1:2 2:6 3:6 4:6 5:4 6:5 7:6 8:7 9:6 10:2 11:8 13:7 14:7 15:3 16:7 17:8 18:10 
-0.2597965771790709 -0.6189295269687715 -0.2680073844350013 -0.3535949421248385 0 0.2702472878740777 0.2390365888920523 0.2703936111711409 0.2658037121582043 0.382191086275157 0.275426251159646 0.2703666478572764 0.2441240878556765 0.2825793786106566 0.3173663850959325 0.2719380696884338 0 0.2917943977004487 0.2608149455848103 0.2734053326881798 0.2492897466192464 0.2493451768840709 0.2895828592581887 0.2501710497924025 0.2591970896642823 0.3053917034949751 0.2485316700757909 0.2630816873953651 0.2592339958763239 0.2736944621765335 0.2916218409325605 0.2242171151209033 0.2724218155844703 0.2711212659941762 0.2868311263284047 1:1 2:6 3:5 4:5 5:4 6:6 7:6 8:7 9:6 10:2 11:7 13:7 14:7 15:3 16:7 17:7 18:10 
-0.3269315363610005 -0.2835763266342949 -0.3224518204561793 -0.3304483463257873 0.2466861081694829 0.3192118427240836 0.2951654973226436 0.3261705118828682 0.3149218259119231 0.6239995120304045 0.2968672816709569 0.3256337949685622 0.3008627494119874 0.3360059327885948 0.2568689080149104 0.3205487567903951 0.3242050754016793 0.3187247527616021 0.30924682380596 0.3229269528111176 0.306851697896775 0.3841788016805616 0.3376398646296203 0.3130626059054443 0.3118050090420696 0.3870361453315008 0.2964628193150126 0.3085959404250157 0.3182484813190773 0.3331731467645093 0.3514923045961585 0.3260951601909212 0.3239184055662901 0.3315333558144233 0.3415633167569304 1:2 2:6 3:6 4:5 5:4 6:6 7:5 8:6 9:6 10:2 11:8 13:6 14:6 15:3 16:8 17:8 18:9 
-0.1473807481439965 -0.7171981696138069 -0.1678276998697451 -0.2401299337557517 0 0.162408694575531 0.1868619420872072 0.1709828901274281 0.1596420391196776 0.9925845545935399 0.1146628328344851 0.1604550863535541 0.1466336876090245 0.1725754670188824 0.04443675948075097 0.1635380727670888 0 0.2563185998744696 0.1586180112050008 0.1676074289193051 0.147966554414695 0.119267468073959 0.1870123397882149 0.1585513671459542 0.1933498701620741 0.1958136047545632 0.1542238685435134 0.1800012314612329 0.1859004448856127 0.1703930760057011 0.2221504590637925 0.2028151107200665 0.1648874798644571 0.1995741336939144 0.1774984036294388 1:1 2:6 3:6 4:6 5:4 6:6 7:6 8:6 9:6 10:1 11:8 13:7 14:7 15:3 16:7 17:7 18:9 
-0.05885293712248049 -0 -0.05291277434921282 -0 0 0.05749469457306858 0.02624128344248851 0.05266528028726953 0.05900944826445802 0 0.1788032841315578 0.05088508092538393 0.03588953775125654 0.05900799595067999 0 0.05830121903364634 0 0 0.05588427043327453 0.04806938947588427 0.02366517405906747 0 0.03440715369117229 0.02774979074361023 0.04678021365937784 0.02148363711777249 0.05083074249929159 0.05052153209896537 0.03625361987668065 0.05260641906801752 0 0 0.05679195109105192 0 0.05002286126792382 1:2 2:6 3:6 4:6 5:4 6:6 7:6 8:7 9:6 10:1 11:8 13:7 14:7 15:3 16:8 17:8 18:9 
-0.07742892815392532 -0 -0.09620746862765105 -0 0.1056659985089697 0.09376424648712681 0.1048139653247167 0.09877979714170523 0.09095555520125763 0 0.03000899432588444 0.09010045215313026 0.08354482397339899 0.1002350044396893 0.4425820480073434 0.09440373317088051 0 0.05382601041984507 0.09278407133677545 0.08933392062031049 0.07432893712066514 0.04867159712698373 0 0.08321976968391756 0.06066975682087775 0.0976780132457538 0.0883769566731544 0.07466226667161732 0.08382869976807555 0.09866355130543081 0.08068787863268459 0.07585363195481461 0.09286062084297782 0.09712948220123094 0.09682122042670074 1:2 2:6 3:6 4:6 5:3 6:6 7:6 8:7 9:6 10:2 11:7 13:7 14:7 15:3 16:8 17:8 18:10 
-0.07675677473607768 -0.07203225975681327 -0.03433569490623288 -0.03655115882323853 0.651342853440075 0.03572418890758062 0.04583120393970935 0.03591325938632628 0.03714352063596359 0 0.07234101768241277 0.0291495618012686 0.03620527276400014 0.03724796788159111 0 0.03600065022802439 0 0.05331497183377581 0.03305135746852586 0.03927214987242184 0.07055743240103617 0.03143185119396857 0.1594689156710187 0.03135870893655213 0.05797192780038059 0 0.03300969663466328 0.04161301722313129 0.0342073251276937 0.03753339977635989 0.03075491683737315 0.06841179446585195 0.03213488660153332 0.07576706706278029 0.03817498276319302 1:2 2:6 3:6 4:6 5:4 6:6 7:5 8:7 9:6 10:2 11:8 13:6 14:7 15:3 16:8 17:8 18:10 
-0.1567690631513287 -0.2650027974608984 -0.1453124936200035 -0.1299042249918866 0.1406223252785577 0.144344782355341 0.2695940421264903 0.1480124358808591 0.1426960087222607 1 0.1395994523080623 0.1839390776204207 0.2482123578657527 0.15097803195374 0.269705030012273 0.1423088613327208 1 0.1746377615325096 0.1399042756629134 0.2309511758125807 0.1708619453486585 0.2924540379951965 0.1811128157548905 0.1505664319397662 0.1671673332533921 0.1521082946686905 0.1346999997974373 0.1522079795767353 0.1643102874504691 0.1533116751871069 0.2241757255718748 0.1735264054345724 0.1487834941946625 0.1922632454034863 0.1642704109002891 1:2 2:6 3:6 4:5 5:4 6:6 7:6 8:6 9:6 10:2 11:8 13:7 14:7 15:3 16:6 17:8 18:10 
-0 -0 -0 -0 0 0 0 0 0 0.2683208763918923 0 0 0 0 0 0 0.07150004883536305 0 0 0 0 0 0 0 0 0 0 0 0 0 0 0 0 0 0 1:2 2:6 3:6 4:5 5:4 6:6 7:6 8:7 9:5 10:2 11:7 13:7 14:7 15:3 16:7 17:8 18:10 
-0 -0 -0 -0 0.5573557400511328 0 0 0 0 0 0 0 0 0 0 0 0 0 0 0 0 0 0 0 0 0 0 0 0 0 0 0 0 0 0 1:2 2:6 3:6 4:6 5:4 6:6 7:6 8:7 9:6 10:2 11:8 13:7 14:7 15:3 16:8 17:8 18:10 
-0.02097667761566136 -0 -0.03449209368950319 -0.04373683635087096 0.109581271198107 0.03738098943869286 0.02060026385207804 0.0370266028294531 0.03812442063132072 0 0.02305124245350429 0.03597539236763476 0.02557233846186884 0.03708995352125884 0 0.03583746549632166 0 0.05640688080128507 0.03611496646846599 0.03490791849250072 0.01643011045229843 0.02925580495645614 0 0.04542399751372263 0.05811418848111978 0.08764049814501741 0.03378230924069679 0.04707051802828094 0.04610743333126103 0.04323329827462635 0.02759337955981898 0.05877164221398177 0.04424811723054095 0.0154208905043968 0.04304110025021372 1:2 2:6 3:6 4:6 5:4 6:6 7:5 8:7 9:6 10:2 11:8 13:7 14:6 15:3 16:8 17:8 18:10 
-0 -0 -0 -0 -0 0 0 0 0 0.04882765672215372 0 0 0 0 0.3257595575031145 0 0 0 0 0 0.05522145696667027 0 0 0 0 0 0 0 0 0 0.04009597760176001 0 0 0 0 1:2 2:6 3:6 4:5 5:4 6:6 7:6 8:7 9:7 10:5 11:8 13:7 14:8 15:4 16:8 17:9 18:10 
-0 -0 -0 -0 -0 0 0 0 0 0.0447811391484412 0 0 0 0 0 0 0.06442711066504556 0 0 0 0 0 0 0 0 0 0 0 0 0 0 0 0 0 0 1:2 2:6 3:6 4:6 5:4 6:6 7:6 8:6 9:7 10:5 11:8 13:7 14:8 15:4 16:8 17:9 18:10 
-0.117577364849634 -0.02208366202894552 -0.1284091883814212 -0.09978288532648874 -0 0.1258647197684802 0.1212333197031209 0.1273663604952045 0.1269963240118908 0 0.131895495018629 0.1258851323501958 0.1162342436491306 0.1335488656056936 0 0.1265581975572475 0 0.1145199535841007 0.1221403094030594 0.1274892587792902 0.06868314463726352 0.07308224872978737 0.1006433176560695 0.1097089089649143 0.1171989898992801 0.1255111778493162 0.1155546267254041 0.1213977186502235 0.1200281781609704 0.1280541857652929 0.0827277710380593 0.0884585697366578 0.1261806126537418 0.09582197203788188 0.1339297246512552 1:2 2:6 3:6 4:6 5:4 6:5 7:6 8:7 9:7 10:5 11:7 13:7 14:8 15:4 16:9 17:9 18:10 
-0 -0.2756875735810718 -0 -0.05702366782245529 -1 0 0.004348845653796423 0 0 1 0.009273965045524349 0 0.005552608727302575 0 0.6857060017727438 0 1 0.04449288810631997 0 0.01895171482730515 0 0.1099749105913338 0.03735589026393574 0.02643142171899198 0.01405702100538109 0 0 0.003065378259640927 0 0 0.01799199922456144 0.0667316918484525 0 0.02004352148532679 0 1:2 2:5 3:6 4:6 5:4 6:6 7:6 8:7 9:7 10:4 11:8 13:7 14:7 15:4 16:8 17:9 18:10 
-0.4439367140901074 -0.5962237911679757 -0.4407311379804473 -0.552862397284489 -0.5992689480454174 0.4405066196855741 0.4447220648028551 0.4473758909265995 0.4352727114321577 0.6889659973566384 0.4611135024187863 0.4431988453412598 0.4325856708486107 0.4619012953284602 0.4996806511086409 0.4397693845253527 0.4791440662559194 0.499119413038291 0.4240243609505942 0.482889694122008 0.4458272409073982 0.466220858140438 0.4676396452122888 0.417053820034365 0.4532794030741054 0.4877964649924247 0.4060760511061325 0.4439218004957985 0.457928628046296 0.4593548930617264 0.4726076547582138 0.527593622290871 0.4458013684543643 0.4902205720969935 0.4806290518886553 1:2 2:6 3:6 4:6 5:4 6:6 7:4 8:7 9:7 10:5 11:8 13:7 14:8 15:4 16:8 17:8 18:10 
-0 -0 -0 -0 -0 0 0 0 0 0 0 0 0 0 0.03982266169711696 0 0 0 0 0 0 0 0 0 0 0 0 0 0 0 0 0 0 0 0 1:2 2:6 3:6 4:6 5:4 6:6 7:6 8:6 9:7 10:5 11:7 13:7 14:8 15:4 16:9 17:9 18:10 
-0 -0 -0 -0 -0 0 0 0 0 0 0 0 0 0 0.04559597146919452 0 0 0 0 0 0 0 0 0 0 0 0 0 0 0 0 0 0 0 0 1:2 2:6 3:5 4:6 5:4 6:6 7:6 8:7 9:7 10:5 11:7 13:7 14:8 15:4 16:9 17:9 18:10 
-0 -0 -0 -0 -0.3608054938493899 0 0 0 0 0 0 0 0 0 0 0 0 0 0 0 0 0 0 0 0 0 0 0 0 0 0 0 0 0 0 1:2 2:6 3:6 4:6 5:4 6:6 7:6 8:7 9:7 10:4 11:8 13:7 14:7 15:4 16:9 17:9 18:10 
-0 -0 -0 -0 -0.9908925708951306 0 0 0 0 0 0.05759835672052565 0 0 0 0 0 0 0 0 0 0 0 0 0 0 0 0 0 0 0 0 0 0 0 0 1:2 2:6 3:6 4:6 5:4 6:6 7:6 8:7 9:7 10:4 11:8 13:7 14:7 15:4 16:9 17:9 18:10 
-0.4322103560824121 -0.3201927102437276 -0.439492282712982 -0.4511229497068404 -0 0.4383331987304013 0.4320709542806798 0.4458259117105123 0.4342918043934362 0.1590245124577757 0.4368477079409473 0.4417484881330971 0.4202154863804922 0.460658639172947 0.4663142683758628 0.4395102923426139 0.0125935892293752 0.4585117310107152 0.4241882377662679 0.4572263581793478 0.4132451926713904 0.4148032184331523 0.4320911131586101 0.4238695473339059 0.4431069151853028 0.4713666109262524 0.4047057764648488 0.4392619344444756 0.4487199717565521 0.4537513430657756 0.4314498637750208 0.4241222943677221 0.4519441581526128 0.4320712412830157 0.4715906077828838 1:2 2:4 3:6 4:6 5:4 6:6 7:6 8:7 9:7 10:5 11:8 13:7 14:7 15:4 16:9 17:9 18:9 
-0.4413342267082991 -0.4765065929181978 -0.439617060534474 -0.4430484225505338 -0.2679937255884539 0.4383821893024098 0.4351730387138885 0.4461430341311721 0.4338719706508719 0.517922584396671 0.4455288518769878 0.441025932046838 0.4246232640230383 0.4605493490677742 0.4580207321682278 0.4397874107777181 0.4493386156124051 0.473367257408338 0.4240973611448429 0.4639518101022626 0.476589357182968 0.4761701924733522 0.4817381956828591 0.4307291846299686 0.44740260892399 0.4661306030120749 0.4056532168599697 0.439324618673637 0.4436127661822329 0.4535540892971496 0.4408883089264036 0.4576980329799936 0.4447053709905389 0.4611934007187886 0.468586048483577 1:2 2:6 3:5 4:6 5:4 6:6 7:6 8:6 9:7 10:5 11:8 13:5 14:8 15:4 16:9 17:9 18:10 
-0.03899601783083764 -0.02512907921959718 -0.01133509072886467 -0.02684301225765563 -0.02289337485155819 -0.02722890510754196 0.02439261782834657 0.02558962343395608 0.0216052952173687 0.02476812935432404 0.02400542462502835 0.02420271094390244 0.0245862741162139 0.01030898834436027 0.02496446639963468 0.03176667197304153 0.02192026041364036 0.03112904459150315 0.02688340323169613 0.02367405285910693 0.0990972206510697 0.03563535651692556 0.04910405744069753 0.1168991505095512 0.04357134940697999 0.02668298154155313 0.02392204648247441 0.03291698517237512 0.04258743088809169 0.02421037031079696 0.02617356638290617 0.02640387992740074 0.04552022174672145 0.03010537941316954 0.03166102887317097 1:4 2:5 3:6 4:7 5:7 6:7 7:4 8:6 9:6 10:5 11:4 12:8 13:7 14:8 15:7 16:4 17:9 18:10 
-0.2829763280310721 -0.3177340744084238 -0 -0.3150817411289666 -0.3033514689109859 -0.3134192544847609 0.3038642488001124 0.3099839262826602 0.2894111411424004 0.3364679638757359 0.3162919487247283 0.3068261637663389 0.2961978231665476 0.235571516237755 0.3160771857367163 0.2959538194443349 0.3024723463978551 0.3182852549434957 0.2959303474744157 0.3232324356996205 0.2474410959392569 0.3042736976741385 0.272530348448261 0.2363982751967133 0.285934809172233 0.3261414066817839 0.2822782905507785 0.2893938427441047 0.2832263798688725 0.3140975218320901 0.3025470450188577 0.307832544247349 0.2944375205172207 0.3020896531491908 0.3234977545268994 1:4 2:6 3:6 4:6 5:7 6:7 7:4 8:6 9:5 10:5 11:3 12:8 13:8 14:8 15:7 16:3 17:9 18:10 
-0.08894582870529393 -0.09736152359186574 -0.3989933108191163 -0.1001033337125754 -0.08792389881225715 -0.09312543730869333 0.09043990568837233 0.08808254185661868 0.07676581572035603 0.1054273923005742 0.09454116156627812 0.08958028693627397 0.09003543440597112 0.3247470294075526 0.09418497420449658 0.1964889719966961 0.0955431138362641 0.1374638433221943 0.08711630270095418 0.1298248727043315 0.1422350865503849 0.1081927856930755 0.09549152921927388 0.09658937757846385 0.09762461246059907 0.09407553309228325 0.08136461308679301 0.1090162023633746 0.1461280236297251 0.08810712583948503 0.0968537415896927 0.1091159219550809 0.1068476603446691 0.1210831377540197 0.1115072343383079 1:4 2:6 3:6 4:7 5:7 6:6 7:4 8:5 9:6 10:5 11:4 12:7 13:8 14:8 15:7 16:4 17:8 18:10 
-0.1820554106306344 -0.2127769759779726 -0.4299301815762974 -0.2077073510744259 -0.2034741283919177 -0.2077818062267925 0.2010097590394639 0.2060455921450818 0.2018532161908811 0.2268069626291845 0.2105512699667123 0.2055422661037434 0.1951450702588932 0.2043348526364562 0.2112170549335003 0.1931065292703707 0.2022966261806234 0.2060687774815898 0.1975073493360248 0.2059849634210067 0.1895379077244342 0.2011024506714323 0.2151043173588891 0.1863896212100394 0.1955569579283743 0.2178699480637882 0.1888857357583429 0.1867880066393763 0.1692448197461076 0.2095690131231096 0.2008796439522566 0.2015758490884589 0.1984777479098156 0.1958211741129701 0.210430222400302 1:3 2:6 3:6 4:7 5:7 6:7 7:4 8:5 9:6 10:5 11:3 12:8 13:7 14:8 15:7 16:4 17:9 18:10 
-0 -0 -0.1009863726295125 -0 -0 -0 0 0 0 0 0 0 0 0 0 0 0 0 0 0 0 0 0 0 0 0 0 0 0 0 0 0 0 0 0 1:4 2:6 3:6 4:7 5:7 6:7 7:4 8:5 9:5 10:5 11:4 12:8 13:8 14:8 15:6 16:4 17:8 18:10 
-0.09707170936960673 -0.08338660491994782 -0 -0.07912487020853184 -0.0783480652452101 -0.07962236335853448 0.0768808980558217 0.07882893792535049 0.07957297221543053 0.09486197708190275 0.08411037626931588 0.07637562872204191 0.07346747084896052 0 0.08186313056470303 0.03071852353796212 0.08991949673480233 0.08659124909789381 0.07013638055714461 0.09621975189799731 0.04763591915596282 0.07441574645903541 0.1192852167180226 0.09808549366121701 0.1117389013306792 0.07929189152507998 0.07001501837299652 0.1009092272593989 0.0955959994653713 0.0775868851858383 0.07625490174637098 0.07803113950960673 0.07896527692136937 0.07623791091513815 0.0754359412116067 1:4 2:6 3:6 4:7 5:7 6:7 7:4 8:6 9:6 10:4 11:4 12:7 13:8 14:8 15:7 16:4 17:9 18:10 
-0 -0 -0.5052630358488349 -0 -0 -0 0 0 0 0 0 0 0 0.1625917168145241 0 0 0 0 0 0 0 0 0 0 0 0 0 0 0 0 0 0 0 0 0 1:4 2:6 3:6 4:6 5:7 6:7 7:4 8:6 9:6 10:5 11:4 12:8 13:8 14:8 15:7 16:4 17:8 18:10 
-0.2646100047928619 -0.2762314660288037 -0.02793329775291983 -0.2730099769684752 -0.2637577965754105 -0.2734677576176581 0.2633061907293145 0.2725355864916088 0.2629986583904153 0.2926379280990836 0.2730423925564912 0.267785809536783 0.2541670990007092 0.2458202805538434 0.2757985111288959 0.266104864642228 0.2602069338365287 0.2695253333561281 0.2575999242345751 0.2629378677674171 0.2113549138074023 0.2578854596612927 0.2539208117811207 0.2125429143403841 0.2612009259658256 0.2832525867770637 0.2472917199063898 0.2592057035372937 0.2676682823083287 0.2773560395360155 0.2624357666487582 0.2666244569747626 0.2603884943708746 0.2592935272118195 0.2790462701900733 1:4 2:6 3:6 4:7 5:7 6:7 7:3 8:5 9:6 10:5 11:4 12:8 13:8 14:8 15:7 16:4 17:8 18:9 
-0.449772547209269 -0.4535661677905365 -0.2710415610243756 -0.4468672771534802 -0.4328381241015068 -0.4484412033828841 0.4301701181587021 0.4418888365918229 0.4680222897134066 0.4845731682262461 0.4477747156584502 0.4365168285786458 0.4190433005938652 0.4076364117933722 0.4502189750560976 0.4233202572669243 0.4353498529971663 0.4572326904413438 0.4200620321321634 0.4542034452828924 0.4482870181708374 0.4494705224707437 0.467636817899196 0.4453396955046953 0.4409518427395051 0.4616043916710427 0.4018798538466377 0.4292557994403732 0.4369744633383746 0.4577801623182359 0.431517846957779 0.4402983982330927 0.4473978056494946 0.4328433257092117 0.4621566778245729 1:4 2:6 3:5 4:7 5:7 6:6 7:4 8:6 9:6 10:5 11:4 12:8 13:8 14:8 15:5 16:4 17:9 18:10 
-0.3552311648329968 -0.3926916900873939 -0.3582872568870262 -0.3613863078724379 -0.3854600682961328 -0.3698949977049368 -0.3555485669872179 0.36286135188908 0.3537487810689054 0.4595847874890195 0.3684890679404775 0.5298366092842057 0.5469515852988374 0.3745771623800171 0.3694068146989012 0.3580486776685305 0.4517815625276715 0.3747086201046622 0.3461154958303945 0 0.341202243584287 0.3926288216192324 0.3714575826244378 0.3427951122677445 0.3624548859838104 0.380284372963919 0.3299757480331474 0.3565166251184452 0.3605318768871827 0.3691332275102352 0.3521190456304727 0.3593295084912944 0.361877893139063 0.3518709790709731 0.3797941106794821 1:2 2:5 3:6 4:6 5:3 6:5 7:5 8:6 9:6 10:1 11:8 13:6 14:8 15:6 17:8 18:9 
-0 -0 -0 -0 -0 -0 -0 0 0 0 0 0 0 0 0 0 0 0 0 0.2436178437814316 0 0 0 0 0 0 0 0 0 0 0 0 0 0 0 1:2 2:6 3:5 4:6 5:3 6:6 7:6 8:6 9:6 10:2 11:8 13:7 14:9 15:7 17:7 18:10 
-0 -0 -0 -0 -0 -0 -0 0 0 0 0 0 0 0 0 0 0 0 0 0.06665520973730438 0 0 0 0 0 0 0 0 0 0 0 0 0 0 0 1:2 2:6 3:6 4:6 5:3 6:5 7:5 8:6 9:6 10:2 11:8 13:7 14:9 15:7 17:7 18:9 
-0.1090690539631987 -0.1012329576059363 -0.1089138305324682 -0.1013392343297097 -0.1027764052553671 -0.1108466702363275 -0.1074069905106389 0.1107014201336586 0.1064815421709534 0.1578396931567651 0.1122814695272022 0.2154318189802701 0.8252579295329222 0.1132165286064982 0.1100668797326608 0.108054387539083 0.227234080724896 0.1109930982500559 0.1044124430534593 0.3267887374122848 0.1093712007157334 0.1302844302688158 0.1162942584999899 0.1047664745681646 0.1099019291513624 0.1153932500433404 0.09880392202280869 0.1076491454707199 0.1086500801618961 0.1110855712114894 0.1050307620561777 0.1099802905704837 0.1093715471476611 0.1079839062239309 0.1118731671990505 1:2 2:6 3:6 4:6 5:3 6:6 7:5 8:5 9:6 10:2 11:8 13:6 14:8 15:7 17:8 18:10 
-0.009085029749345106 -0.1862454828867484 -0.01141532172539377 -0.0474064746452662 -0.003030433158495493 -0.01114597894519877 -0.01165969086275706 0.007673961253267599 0.008655203763048748 0.1162993991483418 0.0110983402154094 0.0880428941825063 0.004935806705220367 0.01061116464751407 0.01978802212353405 0.009310336681675652 0.101334949092917 0.03781358156237705 0.008850325754051298 0.2851644098207783 0.007048855013250951 0.02604969260636724 0.005913141324408042 0.008176228867335371 0.01359970995489362 0.00996753374007356 0.009139481741870707 0.01291757437196708 0.01451484267302508 0.01034184860836523 0.02466457001632508 0.04085317625186766 0.009520134131507995 0.0392891730424266 0.01467883064709899 1:2 2:6 3:6 4:6 5:3 6:5 7:5 8:6 9:6 10:2 11:8 13:7 14:8 15:7 17:7 18:10 
-0.259824535817591 -0.2921034472248682 -0.2633347018796421 -0.2785079991739028 -0.2510847167709582 -0.2672527758704498 -0.2639446105018572 0.2681744658466719 0.2597642466350997 0.2570459588869999 0.2753704629679867 0.1897653066238127 0 0.2763249210027542 0.2640446679960698 0.2629271968393381 0.2053805349104845 0.2871379829462834 0.2551984095235011 0 0.2453875793635885 0.2338535821474006 0.2687826802021955 0.2499242797917259 0.2681716839989799 0.279673416180846 0.2451052465801634 0.2630465770355304 0.2663357345942189 0.2720442368429309 0.260093253117305 0.2680444759395548 0.2654265909733357 0.26339830364087 0.2808239973258222 1:2 2:6 3:6 4:6 5:3 6:6 7:6 8:6 9:5 10:1 11:7 13:7 14:9 15:7 17:8 18:9 
-0.02348028497503864 -0 -0.02799860081456138 -0.02392034587544338 -0.04124687158588667 -0.02902854488775819 -0.02650308750114583 0.02380211922181576 0.02471645587911748 0.04932121826584349 0.02490143015992199 0.05386725959980785 0 0.02671813831057145 0.04083954633893432 0.0269856902852158 0.02499015178016131 0.01387904577629749 0.02336078650284517 0.2021590351571028 0.02633326898162658 0.02494410202251401 0.02307174251569062 0.02689452067364941 0.02461451187166813 0.02543882831876081 0.02078790703594399 0.02456123966379344 0.02517258440428778 0.02513173140374086 0.02520950692343605 0.01401640713873043 0.02570503168268269 0.004083171406808041 0.02227956107945584 1:2 2:6 3:6 4:5 5:3 6:6 7:6 8:6 9:6 10:2 11:7 13:7 14:9 15:7 17:8 18:10 
-0 -0 -0 -0 -0.006337753583004625 -0 -0 0 0 0.09010550277263979 0 0 0.1624342006918944 0 0 0 0.2176542157701439 0 0 0.2911834475285609 0 0 0 0 0 0 0 0 0 0 0 0 0 0 0 1:2 2:6 3:5 4:6 5:3 6:6 7:6 8:6 9:6 10:2 11:8 13:7 14:9 15:6 17:8 18:10 
-0.1103376303999194 -0.04730545852204731 -0.1113750518469984 -0.101717442000763 -0.104148447742898 -0.1155001210919145 -0.1107735474374399 0.1134140512533443 0.1113356914402063 0.106672520478513 0.1153864934001283 0.06651197116543613 0.448963140571069 0.1162754691522311 0.1138376117906689 0.1115980761947066 0.1049798680146049 0.1139322188622355 0.1083430138929317 0.2132181682139048 0.1108366011983748 0.1256860538812628 0.1154326425595552 0.107471398418189 0.1114013310828585 0.1177073573144646 0.1048827915703196 0.1093561182280696 0.1099733200783725 0.1157763861223152 0.1038795247951772 0.1112516821471353 0.1135181816369526 0.1089115288363395 0.1200017509753653 1:2 2:6 3:6 4:6 5:3 6:5 7:6 8:6 9:5 10:2 11:7 13:6 14:9 15:7 17:8 18:10 
-0.2805162398003775 -0.3971947816354713 -0.2819714056589088 -0.3155106588963186 -0.2760580833801756 -0.2892910006633769 -0.2825331657009854 0.2885533216359388 0.2799195759776734 0.2668321833926402 0.2939327581980103 0.3349936329083532 0.09801584808903398 0.2970455984531925 0.3029054279073293 0.2826315699269222 0.170921836294713 0.3158905771373834 0.2736349441577813 0 0.2703457133406266 0.2977113420427365 0.2955281035579165 0.2693813174996949 0.2873648725778986 0.3025644123714956 0.2620765042733603 0.2845348177326288 0.2880517017018985 0.2921025557420711 0.2974127945023204 0.2938312090353208 0.2861830706928746 0.3141063491696403 0.3042230035530874 1:2 2:6 3:5 4:5 5:3 6:6 7:6 8:6 9:6 10:2 11:8 13:6 14:9 15:7 17:7 18:10 
-0 -0 -0 -0 -0 -0 -0 0 0 0.06120448926754312 0 0 0.1470497774966329 0 0 0 0.07616648049014377 0 0 0 0 0 0 0 0 0 0 0 0 0 0 0 0 0 0 1:2 2:6 3:6 4:5 5:3 6:6 7:6 8:6 9:6 10:2 11:8 13:7 14:9 15:6 17:8 18:10 
-0 -0 -0 -0 -0 -0 -0 0 0 0 0 0 0 0 0 0 0 0 0 0.06444282739022189 0 0 0 0 0 0 0 0 0 0 0 0 0 0 0 1:2 2:6 3:6 4:5 5:3 6:6 7:6 8:6 9:6 10:2 11:8 13:7 14:9 15:7 17:7 18:10 
-0 -0 -0 -0 -0 -0 -0 0 0 0 0 0 0 0 0 0 0 0 0 0.6431625057514331 0 0 0 0 0 0 0 0 0 0 0 0 0 0 0 1:2 2:5 3:6 4:6 5:3 6:6 7:6 8:6 9:6 10:2 11:8 13:7 14:9 15:7 17:8 18:9 
-0.2294638642418001 -0.1976057864590949 -0.2308113416161833 -0.2241062405174886 -0.2447841606060796 -0.2445881337543782 -0.2316940787980913 0.2368671780214785 0.2304996113093984 0.1641109349861118 0.2401449564539781 0.06573173430227584 0 0.2430355467416047 0.2425863790729633 0.2325306608984478 0.06474467650595844 0.2423105788103179 0.225542188162392 0 0.2217016829570114 0.2112936302658591 0.2367201944975703 0.2230376944073081 0.2335143780716476 0.2473889522869213 0.2167567406627072 0.2289190761200239 0.2341033554180277 0.2402487384890397 0.2267928280063387 0.2324393936876976 0.2351929316023421 0.2297743349197909 0.2476980482497062 1:2 2:6 3:6 4:6 5:2 6:6 7:5 8:6 9:6 10:2 11:8 13:7 14:9 15:6 17:7 18:10 
-0.05453221631911646 -0.06114544673161915 -0.05511538142626734 -0.05813918716561513 -0.05890048859176181 -0.05972884063597094 -0.05809118685410426 -0.05834808961772184 0.05561942688680786 0.06656773610354581 0.05772186458689877 0.05967722530947765 0.05289987678705161 0.06001387366012521 0.05955332776567699 0.05671025338866333 0.05981398603923199 0.0617343079252134 0.1760248058501131 0.06386851123818237 0.05365590017093697 0.06285781355369763 0.05859237829341506 0.1179952024975589 0.04213102226246214 0.05980453913682508 0.2899446049427151 0.06065222638059619 0.05536713401784636 0.06065428588731525 0.05557914408290286 0.05418524614981048 0.105225703589443 0.05633996119435495 0.06184785746688441 1:3 2:7 3:6 4:7 5:7 6:7 7:7 8:7 9:7 10:3 11:10 12:8 13:7 15:8 16:8 17:10 18:10 
-0.2684487923007058 -0.2785351470058964 -0.2683397727650372 -0.2762573143243118 -0.2637934153389912 -0.2742640697145721 -0.2663878123566572 -0.2634184208873163 0.2696230270119483 0.2985825154745318 0.2782895430260837 0.2667483384993243 0.2574624477886913 0.2799122921264411 0.2775865493551155 0.266947057517214 0.2662137633915311 0.2838084989572542 0.2168283136976725 0.2818859554215313 0.2597249184435009 0.2728086054374045 0.2837331920198679 0.3467383649739161 0.29797400874332 0.2836309035324425 0.1113014812583777 0.2598827782961363 0.2643959986217045 0.2763880527066571 0.2658767140434019 0.2714158169232026 0.2953369209018379 0.2678845550899668 0.283108889393397 1:3 2:7 3:7 4:6 5:7 6:7 7:6 8:7 9:7 10:3 11:10 12:8 13:7 15:7 16:8 17:10 18:10 
-0.3486276481808824 -0.3690343317276015 -0.354155535259509 -0.3650818532317641 -0.3498452988615783 -0.3625538458293749 -0.3520705730198372 -0.3492616742434588 0.3466665784333089 0.3936388725203699 0.3650674647338978 0.3542671310614621 0.339397931358829 0.3711908282785623 0.3661591013303025 0.3545582235888668 0.3528638857472208 0.3844870151686569 0.6009580911305824 0.3746720063266345 0.3389843169774957 0.3596079945834539 0.3626356896929717 0.3595493545307918 0.3982678318624293 0.3763196096306414 0.2534414096089719 0.3987578849715388 0.3837415323675663 0.3636080028982727 0.3539679098155985 0.3630950695320567 0.4822951991107791 0.3584750711517146 0.3819624304652109 1:3 2:7 3:7 4:7 5:7 6:6 7:6 8:6 9:7 10:3 11:10 12:8 13:8 15:8 16:7 17:8 18:10 
-0.05614880969501361 -0.06147421913893532 -0.05699956178895389 -0.05934495933757765 -0.06035738414043378 -0.06114753935487373 -0.057637348297739 -0.05681860366417663 0.06986327347834255 0.06520198743220494 0.05780980594609755 0.05967174401167458 0.05222803280486162 0.06015026821176424 0.05932340076092564 0.05732667662985044 0.06075842530064351 0.06077526325108913 0.04472717596073867 0.06296681634951266 0.05289051530213006 0.06301497181525104 0.05754168037189539 0.07802375124206386 0.04195103797075548 0.05997114113522743 0 0.04405084939759925 0.06288071271340781 0.06435144745356429 0.05576319472921171 0.05601688703314445 0.1040584033219207 0.05626747933700027 0.06274646556953288 1:3 2:7 3:7 4:7 5:6 6:7 7:7 8:7 9:7 10:3 11:10 12:8 13:8 15:7 16:8 17:10 18:10 
-0.1218971284020546 -0.1274476557383565 -0.1214995671541275 -0.124831367035198 -0.1219408917735589 -0.1253176756786492 -0.1229718484650147 -0.1212920937614708 0.122186846151457 0.1373643287010454 0.1246884665217272 0.1213666894390234 0.1180310962606506 0.1265831739068927 0.124793211434743 0.1200661941870971 0.1242857725009422 0.1296755992246381 0 0.1286806737104443 0.1140257906790122 0.1216233869472149 0.1270548904308376 0.08103862338156576 0.144728201593648 0.1278673875253089 0 0.1242442146579735 0.1242869113784183 0.1275548534237432 0.1210580421134091 0.1243214398226861 0.05432268705858301 0.1212871971044406 0.128029092703982 1:3 2:7 3:7 4:7 5:7 6:7 7:6 8:6 9:6 10:2 11:9 12:8 13:8 15:8 16:7 17:9 18:9 
-0.1011474229265573 -0.1087415828028645 -0.1006547307160838 -0.1064012397340085 -0.1031570385769102 -0.1066587845554401 -0.1026172752942224 -0.1021740097354325 0.09621723162831168 0.116661269374477 0.1068279666923498 0.1033966033255704 0.1013669145196062 0.1078331993343887 0.1072116091411365 0.1016236939797009 0.1042292418652053 0.1135293245656281 0.1538403394345592 0.1081745638542799 0.09620648081256282 0.1007952703429843 0.1034600661156549 0.05347855285400883 0.1007656526083348 0.1096751297930436 0.7862562429483533 0.1093277426304169 0.1074577914052316 0.105332222875396 0.10398457444377 0.1083168850321623 0.1660998554964898 0.1032896795205306 0.1102374230411896 1:3 2:6 3:7 4:7 5:7 6:7 7:7 8:7 9:7 10:3 11:10 12:7 13:8 15:8 16:8 17:10 18:10 
-0.165418613617053 -0.1760472398745778 -0.1740154191350284 -0.1749250785370716 -0.1659519305353712 -0.1731438837300851 -0.1690267928891742 -0.1658349673462676 0.1670207104165053 0.1869621084873518 0.1746114721289422 0.169468028575362 0.1610134268145284 0.1780536720995541 0.1750265505668408 0.1704111455128408 0.1672274307028275 0.178956142301408 0.6333251485668 0.1786956065519616 0.16466451878423 0.1751976331266277 0.1748844350797509 0.2442953901200786 0.1884912104263315 0.1798862829333822 0.2293099134981516 0.1613521330244524 0.1704974138218059 0.1723574702816334 0.1667269136473273 0.169760817704069 0.3136134269954571 0.1700653676640032 0.1792064952741214 1:3 2:6 3:7 4:7 5:7 6:7 7:7 8:7 9:6 10:3 11:9 12:8 13:8 15:8 16:7 17:10 18:10 
-0.2858235989527311 -0.3030128358063708 -0.2906235867293779 -0.2999221031599409 -0.2872923490060514 -0.2987168302978287 -0.2890769749420042 -0.2870519597515585 0.2848144069149779 0.3231473273147916 0.3023840545668817 0.290833397362279 0.2792403256936732 0.3042292507501875 0.3020430836186657 0.2906095200521007 0.2890140479665506 0.3089872001789289 0.1688571433838739 0.3074923161345983 0.2737870074253611 0.2927207507924106 0.2976072481611375 0.2068719164088765 0.2916925362734116 0.3093863384582862 0.2893812790925293 0.298189824190127 0.2880049234544728 0.2981461032805185 0.2880786696086203 0.2942806339594606 0.1396074212007278 0.2911687662745947 0.3086549614842133 1:3 2:7 3:7 4:7 5:7 6:7 7:7 8:7 9:7 10:1 11:9 12:8 13:8 15:8 16:8 17:9 18:10 
-0.007142267725898899 -0.005930542395195058 -0.007935961616929006 -0.007856572485826139 -0.003794533063117609 -0.005179727466693589 -0.00507523260834566 -0.007848050247852539 0 0.004198563890279891 0.008113768348804217 0.004998222081280746 0.01129858050500531 0.007069536997323367 0.007082228945276098 0.007462223446044136 0.003526936064760682 0.005144722431087754 0 0.00531137342320665 0.008125302055615105 0 0.003625642725651677 0 0.004384668330490435 0.009210743074628529 0.1532105699145523 0.002255980178632046 0 0.003044985977011308 0.008965308395635588 0.01127717357648713 0 0.01015620794220917 0.004943788754716425 1:3 2:7 3:7 4:7 5:6 6:7 7:7 8:7 9:7 10:3 11:10 12:8 13:7 15:8 16:8 17:10 18:10 
-0 -0.00200549073772002 -0.004377775273831589 -0.0008432225020704554 -0 -0 -0.02385475594175406 -0 -0 0.000911474806741504 0 0.002490838096252614 0 0 0 0 0.002802732038933488 0 0.0005147653192994596 0.003216795292724502 0.04389660276727353 0.001505533409831815 0.06512034858421978 0.1084375532721765 0.05167368093948452 0.004213521715897333 0.001446671988408183 0 0.001083563209909512 0 0.001911534605058941 0 0.01666756433559304 0 0 1:3 2:6 3:7 4:7 5:7 6:7 7:7 8:7 9:6 10:4 11:8 12:9 13:8 14:8 15:1 16:8 17:9 18:10 
-0.3904999450473448 -0.4058188437988318 -0.4074199498090933 -0.4023230261984036 -0.3864096483535535 -0.4013160795694801 -0.3878939130500846 -0.3872281598958259 -0.3935015368557606 0.43371135587312 0.4032399353219905 0.3897123948800226 0.3747672059241271 0.4156770491770421 0.4041975919121255 0.3946559519845056 0.3887054679426843 0.4254807995839642 0.3769895928376287 0.4103807269088622 0.3660530242003828 0.3947435338324922 0.418850321141734 0.3706322224795718 0.4040395947124 0.4114133847832684 0.3592704467667735 0.4181428623837137 0.4387931156723059 0.4363089451651207 0.3881599350311743 0.3986758941366179 0.3979812902125344 0.3956256258172126 0.4196608793036866 1:3 2:6 3:6 4:7 5:7 6:7 7:7 8:7 9:6 10:4 11:8 12:9 13:8 14:8 15:1 16:9 17:8 18:9 
-0.3511886081917173 -0.361224530218472 -0.3400949181159089 -0.3578262234774585 -0.3426114890456951 -0.354346134241306 -0.3476207684844658 -0.3438146417791242 -0.3649308723471395 0.3846887894404366 0.3575535995160211 0.3475662924083326 0.3349787960423153 0.3597736308977631 0.3583072346804537 0.345148855046273 0.3459944970308436 0.368892478284228 0.3450079731098035 0.3659702320630549 0.3182922192074887 0.3502882789413134 0.3447381689199953 0.3902065787269067 0.3826762339228799 0.3674105097674116 0.3230670142147813 0.3512764724610185 0.3605138394802243 0.4719121728838828 0.3444965358902461 0.3517342250727615 0.4153681118947906 0.3481376476755887 0.367190995715014 1:3 2:7 3:7 4:7 5:7 6:7 7:6 8:6 9:6 10:4 11:8 12:9 13:8 14:6 15:1 16:9 17:9 18:10 
-0.01680303428849831 -0.04207249451698512 -0.02863989254704376 -0.04083003181937978 -0.03576208228029173 -0.03935359316657884 -0.02092534281027486 -0.03772039514004324 -0.03967463010244593 0.04337695949800924 0.03993395714789851 0.04152330755553892 0.03885420315703458 0.03530626031459952 0.0404799725622719 0.03624077770274004 0.03888240087706819 0.03252728755750256 0.03797646459113993 0.04297175807901809 0.02153941429684529 0.03687315415252017 0.00301764986694782 0 0.009518519222677779 0.04411249138530839 0.03598457510793047 0.009897798046932712 0 0 0.03843683542356966 0.03544193060123791 0.02826116828778302 0.03452703614018648 0.03482128826557349 1:2 2:7 3:7 4:7 5:7 6:7 7:7 8:7 9:6 10:4 11:8 12:9 13:8 14:8 15:1 16:9 17:9 18:9 
-0.09103309876584254 -0.08444603911730096 -0.07419901142087626 -0.08448737155944042 -0.07824873398525671 -0.07816469929748633 -0.09427092025292692 -0.08230163542674138 -0.08484208316582366 0.09185806656295879 0.08488344675681217 0.08061777340698509 0.08027063800847709 0.08606539969171287 0.08518490630137708 0.07972257659195889 0.08155565759932709 0.08598639458448624 0.07762510002104379 0.08469527898789581 0.08328651897705201 0.08453242253984679 0.05399531637353688 0.02224119496482119 0.07930681543084377 0.08472845147997579 0.07570425661141308 0.08688062548171828 0.09369316398149571 0.1138178313408106 0.07954133937979659 0.08475669068703322 0.08867763962377009 0.08350457617356262 0.09029646700110444 1:3 2:7 3:7 4:7 5:7 6:6 7:7 8:7 9:6 10:4 11:8 12:9 13:8 14:8 15:1 16:8 17:9 18:10 
-0.2072532504467012 -0.2144022820932015 -0.2091420809086045 -0.2121634346005354 -0.213540044485014 -0.2208566545477998 -0.1955797332227776 -0.2032823538554483 -0.2035278320216557 0.2305751395368409 0.2131041631850809 0.2050851034051592 0.1977016085152783 0.2156411879803742 0.2146706154332645 0.2047924808059877 0.2078395257060101 0.2260106247985425 0.195456340396399 0.2178436482931538 0.1943295289115062 0.2089586903063413 0.2294683403094744 0.1877416999223725 0.2182722657212095 0.216606632728722 0.1890922867355424 0.2158451265484165 0.2165825092990876 0.1994014355370541 0.2069168475876364 0.2122277654643407 0.1963860002089692 0.2085389298576689 0.2201015063343408 1:3 2:7 3:7 4:7 5:7 6:7 7:7 8:7 9:5 10:4 11:8 12:8 13:8 14:8 15:1 16:9 17:9 18:10 
-0.3300271994119566 -0.3399088643342238 -0.3425199576759917 -0.3341915450234063 -0.3254608634732444 -0.3363956496657055 -0.3300839548279748 -0.3207739221472197 -0.3255345464288344 0.361725700904145 0.3361225510950129 0.3257265596801431 0.3114223358913422 0.3456659297181601 0.3366999111888856 0.3311437070939002 0.3250611743823357 0.3480019658095026 0.3123796734248254 0.3447322627318736 0.3428882014730769 0.3327095344130738 0.3835729999153552 0.3682696228814628 0.3174229948942671 0.3447980236268026 0.3000068025630783 0.3203131444788889 0.3186721748958139 0.2899518943484825 0.3235605373786261 0.3309774563438179 0.305501478383472 0.327534305403393 0.3466392695100384 1:3 2:7 3:7 4:7 5:6 6:6 7:7 8:6 9:6 10:4 11:7 12:9 13:7 14:7 15:1 16:9 17:9 18:10 
-0 -0 -0 -0 -0 -0 -0 -0 -0 -0 0 0 0 0 0 0 1 0 0 0 0 0 0 0 0 0 0 0 0 0 0 0 0 0 0 1:2 2:6 3:6 4:5 5:5 6:6 7:6 8:6 9:6 10:2 11:8 13:7 14:7 15:5 16:5 17:8 18:10 
-0.2229401370835956 -0 -0.2052913411764525 -0.07818620388513825 -1 -0.7805088442503805 -0.2050025976769791 -0.157659418335969 -0.2096585173432683 -0.2049986343469911 0.1784781833356274 0.1913171091311573 0.1747691299751992 0.2166947738476047 0.3287753220291694 0.205763562841393 0 0.1823047297467873 0.1986555524630933 0.1704068089976528 0.2317922257201422 0.3164988323401715 0.3317476832477667 0.2049601847683819 0.2136777453166598 0.2275336113527481 0.1896578093317973 0.1911299237196149 0.1964934097527143 0.2170118761191617 0.2086068675744754 0.1816057967920791 0.208434448340988 0.2106196994495069 0.2141666361770536 1:2 2:5 3:6 4:5 5:5 6:5 7:6 8:6 9:6 10:2 11:8 13:6 14:7 15:3 16:6 17:8 18:10 
-0.198363063615324 -0 -0.1993867040140121 -0.03571556474255017 -0.7949614654032349 -0 -0.2003621109177817 -0.2677717411628222 -0.2035210982539136 -0.1992592280613317 0.1931783533472802 0.2271965263516529 0.2782495672286008 0.2108344598817107 0 0.1998687330447233 0.4434472800714648 0.134293478891703 0.1929262111482485 0.2512943809476296 0.1683355658756664 0.2824974370562061 0.1583058930263568 0.1772570537027237 0.2057373420157337 0.2146631262253713 0.1830541869486951 0.1995544869135738 0.1972776484910348 0.2068435194696084 0.1180097085865556 0.162252135354689 0.2007460566668556 0.1491719659285134 0.2207168123356471 1:2 2:6 3:6 4:6 5:5 6:4 7:6 8:6 9:6 10:2 11:8 13:7 14:7 15:4 16:5 17:8 18:10 
-0.2370688328680344 -0.8284548916117994 -0.2407701325972794 -0.3035099606907937 -0 -0.6196038124988574 -0.2418965591963174 -0.5285124945798845 -0.2431489312879309 -0.2345189231143551 0.3016760787331866 0.2624268254649411 0.3797722943399002 0.2521548260997221 1 0.2381019445069848 1 0.3545870252026513 0.2288177070095602 0.6046899942262952 0.2961137641287485 0.4004297150034103 0.2562529244029902 0.2539476836874868 0.2622616976363549 0.2436061502261215 0.2184410965740739 0.2548200147955228 0.2695372623797294 0.2469136328856191 0.3586930226259568 0.4591063369169097 0.2485652209865288 0.3971856029012263 0.2774128989915385 1:2 2:6 3:6 4:6 5:4 6:6 7:6 8:6 9:6 10:3 11:8 13:7 14:7 15:6 16:5 17:8 18:10 
-0 -0 -0 -0 -0 -0 -0 -0 -0 -0 0 0 0 0 0 0 0.8715041559213761 0 0 0 0 0 0 0 0 0 0 0 0 0 0 0 0 0 0 1:2 2:5 3:6 4:6 5:5 6:6 7:6 8:6 9:6 10:2 11:8 13:6 14:7 15:5 16:6 17:8 18:10 
-0 -0 -0 -0 -0.4971815660569701 -0 -0 -0 -0 -0 0 0 0 0 0 0 0 0 0 0 0 0 0 0 0 0 0 0 0 0 0 0 0 0 0 1:2 2:6 3:6 4:6 5:5 6:6 7:6 8:6 9:6 10:1 11:8 13:7 14:6 15:5 16:6 17:8 18:10 
-0 -1 -0 -0.1874614261104562 -0 -0 -0 -0 -0 -0 0 0 0 0 0 0 0 0.1171629797999126 0 0 0 0 0 0 0 0 0 0 0 0 0 0.06163544176817438 0 0.008383780838431028 0 1:2 2:6 3:6 4:6 5:5 6:5 7:6 8:6 9:5 10:2 11:8 13:7 14:7 15:5 16:5 17:7 18:10 
-0.3936433040417316 -0.9896294100743851 -0.4084994290326137 -0.6660001694931571 -0.2943579159103072 -0.4122726410972521 -0.4044745579739173 -0.3764545732086632 -0.412500949670933 -0.3999515219385806 0.4425091179516398 0.4304349928970051 0.3766042689866658 0.4279599738229604 0.5854516658878067 0.4069160719404901 0.7029216922414848 0.5217453399956088 0.3909677666096985 0.4156802666375218 0.3700999661688765 0.3979424187927562 0.411628256627064 0.3912163183612616 0.4277674427020335 0.4417765847742909 0.3714239330578724 0.4213530643563757 0.4218845161668938 0.4191039722582572 0.3887491881633419 0.4369492353150594 0.4106406996128488 0.4156480105327438 0.4443466386908563 1:2 2:3 3:6 4:6 5:5 6:6 7:6 8:6 9:6 10:2 11:7 13:7 14:6 15:5 16:6 17:7 18:10 
-0 -0 -0 -0 -0.7607840562836126 -0.2997353267586279 -0 -0 -0 -0 0 0 0 0 0 0 0 0 0 0 0 0 0 0 0 0 0 0 0 0 0 0 0 0 0 1:2 2:6 3:6 4:6 5:5 6:6 7:5 8:6 9:6 10:2 11:7 13:7 14:7 15:5 16:6 17:8 18:10 
-0 -0 -0 -0 -0.7353303798912321 -0 -0 -0 -0 -0 0 0 0 0 0 0 0 0 0 0 0 0 0 0 0 0 0 0 0 0 0 0 0 0 0 1:1 2:6 3:6 4:6 5:5 6:6 7:6 8:6 9:6 10:2 11:8 13:7 14:7 15:5 16:6 17:8 18:9 
-0 -0 -0 -0 -0.08462730665001213 -0 -0 -0 -0 -0 0 0 0 0 0 0 1 0 0 0 0 0 0 0 0 0 0 0 0 0 0 0 0 0 0 1:2 2:6 3:6 4:6 5:5 6:6 7:6 8:6 9:5 10:2 11:8 13:7 14:6 15:5 16:6 17:8 18:10 
-0 -0 -0 -0 -0 -0 -0 -0 -0 -0 0 0 0 0 0 0 0.07958296657466733 0 0 0 0 0 0 0 0 0 0 0 0 0 0 0 0 0 0 1:2 2:6 3:6 4:6 5:5 6:6 7:6 8:5 9:6 10:2 11:8 13:6 14:7 15:5 16:6 17:8 18:10 
-0.2590508030769403 -0.3445612389522558 -0.2583912712869544 -0.3788255083991515 -0.6093994423241865 -0.3474012654765623 -0.2567242653518346 -0.2040237403672126 -0.2623048948846993 -0.2553599884686638 0.3456320866773954 0.2518415213318942 0.210387609524535 0.2715673803721903 0.3091513897540477 0.2573562212622237 0.3767459770421216 0.2746509020286146 0.249656713026647 0.2301564278378839 0.2382854586023466 0.2220228380521651 0.2928967954463504 0.2512996432602859 0.269840639063234 0.274822554980129 0.2364733337775137 0.2763662291975144 0.2774301015821171 0.2670919010680355 0.2766131429544478 0.2246254942923551 0.2629938432268714 0.2568679341846385 0.2825478361395933 1:2 2:6 3:5 4:5 5:5 6:6 7:6 8:6 9:6 10:2 11:8 13:7 14:7 15:5 16:6 17:8 18:8 
-0 -0 -0 -0 -0 -0 -0 -0 -0 -0 0 0 0 0 0 0 1 0 0 0 0 0 0 0 0 0 0 0 0 0 0 0 0 0 0 1:2 2:6 3:6 4:6 5:5 6:5 7:6 8:6 9:6 10:2 11:8 13:7 14:7 15:5 16:5 17:8 18:10 
-0.2532916375975404 -1 -0.2597600127449534 -0.4450936679477787 -0.4904538967714382 -0 -0.257083430450221 -0.1945947201898665 -0.2611903178578531 -0.2527591906923297 0.264999328430851 0.2768366547873643 0.226223783722688 0.2731517108361929 0.1352681658486901 0.2615171762209758 0 0.3279423713569803 0.2470929703520522 0.2020133389878616 0.2288425679595491 0.2065089419425217 0.276295899058749 0.2393256914620386 0.2622038162676756 0.3108591673937287 0.2355431657181351 0.2610891997569691 0.2657243653640133 0.2661681202970846 0.3996511807196698 0.3094113260063598 0.2606923383073222 0.2878559168529916 0.2751166080292558 1:2 2:6 3:6 4:5 5:5 6:6 7:6 8:4 9:6 10:2 11:7 13:7 14:6 15:5 16:6 17:7 18:10 
-0.4602952150922605 -0.5002176434044022 -0.465187055580591 -0.5036267249767645 -0.4544635316279652 -0.4858553794773832 -0.4633534822318678 -0.4595248206918675 -0.4700339275277139 -0.456749096104227 -0.5215847715235492 0.4645023130927182 0.4465292503308604 0.4870142608729854 0.4958832585588153 0.4633548111792077 0.4630220193321956 0.4946538994256466 0.4467878482577546 0.4921889209276 0.4418073087643975 0.4700616853482529 0.4829347391070058 0.4429685847343349 0.4705121403413576 0.492250763958892 0.4269778057923864 0.4557244300670673 0.4633281906752161 0.4779677162431307 0.4583190935457589 0.4615039778464419 0.4680273149175879 0.4695046538760164 0.4903659545279369 1:5 2:6 3:7 4:7 5:7 6:7 7:5 8:7 9:6 10:1 11:7 13:6 14:9 15:9 16:9 17:8 18:10 
-0.4454575179496256 -0.498277380154419 -0.4553102354848924 -0.5770705699807761 -0.467227842547818 -0.484898361002661 -0.4505087826179803 -0.4480241052216336 -0.4587027382951319 -0.4467376831965404 -0.5473432556189441 0.4537954061482398 0.4351735110542161 0.4762713498350945 0.5439939715179229 0.4534224453567259 0.4748569339069545 0.4922451308036654 0.4361000203456624 0.4814112630452571 0.4306508128076972 0.4587572004813567 0.4629823567407158 0.4315510944935559 0.4539236266229957 0.4811979258877956 0.4164142155683481 0.4486755042781329 0.4594405854307739 0.4664316035621808 0.4492866061412896 0.4673682209137698 0.4566631958835808 0.458380592382338 0.4830414634735274 1:5 2:6 3:6 4:7 5:6 6:7 7:7 8:7 9:6 10:1 11:7 13:8 14:9 15:9 16:9 17:8 18:8 
-0.08465838668126988 -0.05785902696538066 -0.08470680990332574 -0.007087621417292919 -0.04849073325167857 -0.05281806008657971 -0.08622643472779984 -0.08673170631018506 -0.08850513612819835 -0.08467886702083451 -0.04180903033661087 0.08641310520018226 0.08374114372882775 0.09010533238698412 0.02013439148203025 0.08636902435345013 0.04702923092811923 0.08616715096658267 0.0835225384720848 0.09205104736522669 0.08195889007411551 0.08814208483200393 0.08687301204047387 0.08122821463134222 0.08416525732227795 0.09222562551891551 0.080343521290624 0.08232891179777357 0.08307412564329905 0.09045788692612854 0.08169505417942322 0.09262985615355472 0.08714750511735792 0.08690540629152461 0.09650314243073504 1:5 2:7 3:7 4:7 5:7 6:6 7:7 8:7 9:5 10:1 11:8 13:7 14:9 15:9 16:9 17:8 18:9 
-0.2182251830402532 -0.2578708738092164 -0.2294201915058295 -0.2901828303978304 -0.2064013997812905 -0.2189887279105656 -0.2271304236579504 -0.2249534577252192 -0.2311767096661773 -0.2237502663363345 -0.2556531725812654 0.2264505357434226 0.2190843380968524 0.2386393696148185 0.3085576448738714 0.2257706739261318 0.2209185896954941 0.2648863040211636 0.2201813674025669 0.243477987031857 0.2149746748458798 0.2287608086122862 0.2310556407982513 0.2208134290189012 0.2390830565730664 0.2396682269654761 0.207975699986477 0.2502088428054953 0.2331862739888121 0.2340487548749829 0.2478553912727054 0.191657428628584 0.2323195849113099 0.22360846034609 0.2349467360129138 1:4 2:7 3:7 4:7 5:7 6:7 7:7 8:7 9:6 10:1 11:8 13:8 14:8 15:9 16:9 17:8 18:10 
-0.229479558503338 -0.2759652117407387 -0.2244605436567128 -0.3574619870610683 -0.312822265009754 -0.2996973505442108 -0.2230981661314058 -0.2223708889142094 -0.2270958949344615 -0.2229217403648796 -0.3600829184156109 0.2273633438828127 0.2149723824068023 0.2356485438802165 0.2588935182668269 0.2249172609214031 0.3311742296557106 0.273928964772689 0.21599677278254 0.2399830758090293 0.2164627875622405 0.2308137096351104 0.2364588115273041 0.2146917042370517 0.2339895879561482 0.242077019701747 0.207835084170311 0.2484765879334813 0.243472975591961 0.2311706874753636 0.2277566759815257 0.3393327871093355 0.2265021268268257 0.2433018182045689 0.2534241621121208 1:5 2:7 3:7 4:7 5:7 6:6 7:6 8:7 9:6 10:1 11:8 13:8 14:8 15:8 16:9 17:8 18:10 
-0 -0 -0 -0 -0 -0 -0 -0 -0 -0 -0 -0 0.230306651708324 0 0 0 0 0 0 0 0 0 0 0 0 0 0 0 0 0 0 0 0 0 0 1:2 2:4 3:4 4:4 5:5 6:5 7:4 8:5 9:5 10:3 11:8 13:5 14:4 15:6 17:8 18:10 
-0.2164384887320836 -0.2064615055520254 -0.2226812941203795 -0.2239223209927772 -0.2189814247009385 -0.2276579358504794 -0.218096970852584 -0.1823607846143908 -0.2252405895074523 -0.2193686290038009 -0.2316958883500837 -0.2304037960966711 0 0.2323092880678057 0.2299338441263183 0.2224267848359751 0.1948467307937133 0.2323336521420555 0.2148795733743319 0.1852879903800702 0.2095903795139511 0.219415867909703 0.2258830878039958 0.2135432071502141 0.2225383772650037 0.2330903212544431 0.2038235903658615 0.2190664165961224 0.2213841356229431 0.2258606373330532 0.2134605297972766 0.2202150746629899 0.2241976829940717 0.2175748510350591 0.2314722237986641 1:1 2:3 3:4 4:4 5:5 6:5 7:4 8:5 9:5 10:3 11:8 13:5 14:3 15:6 17:7 18:10 
-0 -0 -0 -0 -0 -0 -0 -0.143112930791461 -0 -0 -0 -0 0 0 0 0 0 0 0 0.03710662263581953 0 0 0 0 0 0 0 0 0 0 0 0 0 0 0 1:2 2:4 3:4 4:4 5:5 6:4 7:5 8:5 9:5 10:3 11:8 13:6 14:4 15:6 17:7 18:10 
-0.08469146711155397 -0.08828191783458253 -0.08298489677285628 -0.08785982361391158 -0.09538260899015222 -0.08936926284432463 -0.08427022782668139 -0 -0.08552707345729038 -0.08411709283088965 -0.1572217085589562 -0.08710837563981731 0.7015728721897616 0.08817608565444364 0.08827668864404088 0.084662934775747 0.1604740574944914 0.09171756374606922 0.0817421215214113 0.1643111368314968 0.08409053986553321 0.3480528240794348 0.0895307736712356 0.08006276683811443 0.08604615299246385 0.09190746135900288 0.07861623462194041 0.08473379979589235 0.08652712448727855 0.0872519968284538 0.08352468658728075 0.0904905819787146 0.08576118487192547 0.08770593168552347 0.09247085768597282 1:2 2:4 3:4 4:4 5:5 6:4 7:5 8:5 9:5 10:3 11:8 13:6 14:4 15:5 17:8 18:10 
-0.3410989219955853 -0.3641512930134695 -0.3452424127970311 -0.3580995543977951 -0.3398232876876632 -0.3535395487136819 -0.3445154377828719 -0.3420101745201337 -0.3502523970835193 -0.3401099448890714 -0.391787468318841 -0.3567693359651098 0.7181341191464454 0.3621253217127174 0.3565605726859401 0.3451273525151642 0.3586610368929966 0.3685471168225967 0.3336322196283563 0.4087486980016817 0.3292573812120904 0.3090229730324088 0.3542454745378263 0.3305200286917438 0.3487526508191825 0.3658904375491799 0.3193161652265599 0.3438473987739368 0.3489473984024161 0.356901346388936 0.3415816514026421 0.3495638251172134 0.349372370073722 0.3463624453094792 0.3664138840338955 1:2 2:4 3:4 4:4 5:5 6:5 7:4 8:5 9:4 10:3 11:6 13:6 14:4 15:6 17:8 18:10 
-0.1670412166132967 -0.1926684146815817 -0.1682744224457754 -0.1788018828855616 -0.1592542417613028 -0.1715687242244276 -0.1685258001448904 -0.01019501401524024 -0.1705074938276459 -0.1656053319403892 -0.1716667049354725 -0.1727710924266919 0 0.1760288061583021 0.17328540855384 0.1684851028602459 0.1110571480625998 0.1828114685487119 0.1626043417237012 0.1429547031053611 0.1614851406231283 0.1018206761818792 0.1725438209988901 0.1592480841697859 0.1720261517605865 0.1818447359906136 0.1562478878438621 0.1686951885990669 0.1711547817516216 0.1760643610934181 0.1759203766830855 0.1730082745097241 0.1694140689667621 0.1719941091203243 0.1811663331602874 1:1 2:4 3:4 4:3 5:5 6:5 7:5 8:5 9:5 10:3 11:8 13:6 14:3 15:6 17:7 18:10 
-0.1759639380977061 -0.195131806075912 -0.1812836328395482 -0.1829916363600969 -0.1901118270396661 -0.1862774490655487 -0.1788814286290932 -0.2556607706592467 -0.1821684634329179 -0.1773063707418687 -0.2145155061067659 -0.186370325103082 0 0.1879169368860912 0.1908993408100302 0.1789472880794933 0.2089374280577173 0.1884462160663768 0.1733818656180411 0.1478233832394763 0.1701336871170931 0.1722365934092256 0.1822507538803625 0.1736646849967215 0.1799221259931413 0.1899828023254247 0.1644833894548806 0.1775751612011421 0.1793977574205358 0.1830814086321542 0.1788154625631667 0.1807945306015004 0.1807296876017618 0.1796340329717889 0.1887116701063946 1:2 2:4 3:4 4:3 5:4 6:5 7:5 8:5 9:5 10:3 11:7 13:6 14:4 15:5 17:8 18:10 
-0.2738452062110775 -0.31250572339876 -0.2772567423226289 -0.2865609235147198 -0.2768355036867976 -0.2848917160417972 -0.2750055646218961 -0.3584671341376532 -0.280635643197029 -0.2734720703131616 -0.3315535582137519 -0.2860776868733881 0.02463379882269314 0.290176134555337 0.2856312901053638 0.2761416780493859 0.2846925948106118 0.2967051506379341 0.2671038240391203 0.2841440812770097 0.2632796219757433 0.2433239471421121 0.286372307388514 0.2651769221212762 0.2812184074450214 0.2921970582314418 0.2557576620290299 0.2749345726572074 0.2783146261135802 0.2853943923640993 0.2746725522215714 0.2806687363917043 0.2804073018243758 0.2789074775794452 0.2938917353003447 1:2 2:4 3:4 4:4 5:5 6:5 7:5 8:4 9:5 10:2 11:8 13:5 14:4 15:6 17:8 18:9 
-0.1338962308839448 -0.1632361869970138 -0.1340195745576797 -0.1422251315251245 -0.1300182019726059 -0.1385537611311314 -0.1375342647297124 -0.1059513129575039 -0.1360957191595993 -0.1327428297132526 -0.1416127954801436 -0.1390240919626153 0 0.1403233204426589 0.1408676230877957 0.1339992926987787 0.1153369040957781 0.1465802752684709 0.1292676578123429 0.1409307139424683 0.1287807732488356 0.1659560677897225 0.1390088814867631 0.1270322898638686 0.1376102008738521 0.145393803347771 0.1242867590784545 0.1354287786796286 0.1376088721119713 0.1394552044444783 0.1382138166635925 0.1421856959337367 0.1355090534884937 0.141494195174209 0.146207737208062 1:2 2:3 3:4 4:4 5:5 6:5 7:4 8:5 9:4 10:3 11:8 13:5 14:4 15:6 17:7 18:9 
-0 -0 -0 -0 -0 -0 -0 -0.04923826146044566 -0 -0 -0 -0 0.5146720043056037 0 0 0 0 0 0 0.06665134528910102 0 0 0 0 0 0 0 0 0 0 0 0 0 0 0 1:1 2:4 3:4 4:4 5:5 6:5 7:5 8:5 9:5 10:3 11:8 13:6 14:4 15:6 17:8 18:9 
-0 -0 -0 -0 -0 -0 -0 -0.09718484389059263 -0 -0 -0 -0 0 0 0 0 0.08916266620324875 0 0 0 0 0 0 0 0 0 0 0 0 0 0 0 0 0 0 1:2 2:4 3:4 4:4 5:5 6:5 7:5 8:5 9:5 10:2 11:8 13:6 14:4 15:5 17:8 18:10 
-0 -0 -0 -0 -0 -0 -0 -0 -0 -0 -0 -0 0.7901303121020112 0 0 0 0 0 0 0 0 0 0 0 0 0 0 0 0 0 0 0 0 0 0 1:2 2:4 3:4 4:4 5:5 6:5 7:5 8:5 9:5 10:3 11:8 13:6 14:4 15:6 17:8 18:10 
-0 -0.03747904074772283 -0 -0 -0 -0 -0 -0.05395379859587844 -0 -0 -0 -0 -0 0 0 0 0.008738098786226183 0 0 0.639688236622393 0 0 0 0 0 0 0 0 0 0 0 0 0 0 0 1:2 2:5 3:4 4:5 5:5 6:5 7:5 8:5 9:5 10:4 11:8 13:6 14:7 15:6 17:8 18:10 
-0 -0 -0 -0 -0 -0 -0 -0 -0 -0 -0 -0 -1 0 0 0 0 0 0 0 0 0.1967750170257478 0 0 0 0 0 0 0 0 0 0 0 0 0 1:2 2:5 3:4 4:5 5:5 6:5 7:5 8:5 9:5 10:4 11:8 13:6 14:6 15:6 17:9 18:10 
-0 -0 -0 -0 -0 -0 -0 -1 -0 -0 -0 -0 -0 0 0 0 0 0 0 0.1552737450654294 0 0 0 0 0 0 0 0 0 0 0 0 0 0 0 1:2 2:5 3:5 4:5 5:4 6:5 7:5 8:5 9:5 10:4 11:7 13:6 14:7 15:6 17:9 18:10 
-0.3499721845243823 -0.3667235563820025 -0.3567630317843164 -0.3632311823575439 -0.3480336739610506 -0.3656702891688509 -0.3549002592534392 -0.346240409979358 -0.3618368874405915 -0.3517102571147487 -0.4021259788566504 -0.3672818097956429 -0.07359136465819274 0.3723274152824084 0.3700192845706007 0.3560936998885464 0.311659611496173 0.378708340646339 0.3449587342987024 0.2658794871321589 0.3457155255346865 0.3985935498051498 0.3656203355506163 0.3412939048246968 0.360278629587027 0.3774915555355077 0.3294618469059388 0.3546427966425215 0.3590529264075666 0.366660162500999 0.3513423956272773 0.3605368883254706 0.3590320210918284 0.3537487669763155 0.376439326428623 1:1 2:5 3:5 4:5 5:5 6:4 7:5 8:5 9:5 10:4 11:8 13:5 14:7 15:6 17:9 18:9 
-0 -0 -0 -0 -0 -0 -0 -0 -0 -0 -0 -0 -0 0 0 0 0 0 0 0.1918945636946217 0 0 0 0 0 0 0 0 0 0 0 0 0 0 0 1:2 2:5 3:5 4:5 5:5 6:5 7:4 8:5 9:5 10:4 11:8 13:6 14:7 15:6 17:9 18:9 
-0.1927382913342783 -0.2057386666264176 -0.1976682737666964 -0.2041204243535446 -0.1990102345283915 -0.2042176589274415 -0.2000315683766015 -0 -0.2020488208596465 -0.194222102791146 -0.2520516196097141 -0.2032640722452449 -0.7773492311562449 0.2083608616917074 0.205264509349553 0.1976913551466207 0.1976563232300936 0.2104467487683717 0.1937158842913685 0.1372999214676209 0.1871479937866054 0.1849409749959731 0.2020290942836751 0.1898898890925907 0.1990613475288794 0.2095736778179447 0.1860015420950561 0.1964569070479402 0.200041101501118 0.2045024188803627 0.1961509486790206 0.1982049516212812 0.2004285714534744 0.191596737922417 0.2094820752549204 1:2 2:4 3:5 4:4 5:5 6:5 7:5 8:5 9:5 10:4 11:7 13:6 14:7 15:5 17:9 18:10 
-0 -0 -0 -0 -0 -0 -0 -0.3427050637398402 -0 -0 -0 -0 -0 0 0 0 0.1115190596658441 0 0 0 0 0 0 0 0 0 0 0 0 0 0 0 0 0 0 1:2 2:5 3:5 4:5 5:4 6:5 7:5 8:5 9:5 10:4 11:8 13:6 14:7 15:5 17:9 18:10 
-0.1610851023459466 -0.1357040221524224 -0.161665214089058 -0.1631130010412263 -0.1606763414395496 -0.1630416696197063 -0.1593663271942988 -0 -0.1620989437677366 -0.1606948125631752 -0.1633160092122095 -0.16803051513352 -0.7260334833784083 0.16789386236621 0.1667678358661149 0.1622726749925861 0.2637562888943591 0.1695271089779378 0.1548197173420326 0 0.1533738021027146 0.1742696493566904 0.169191339812616 0.1566900459647 0.1673522830420811 0.1718136067649397 0.1491059173261917 0.1622252085873725 0.1643284160317575 0.1659642502713864 0.1615816317800116 0.1611992846189733 0.1669313585017412 0.1594655321595319 0.1738111715104904 1:2 2:5 3:5 4:5 5:5 6:5 7:5 8:5 9:4 10:4 11:8 13:6 14:6 15:6 17:9 18:10 
-0.1673179714886056 -0.1485433892923104 -0.1657094961543151 -0.1657090136396205 -0.1681059951332891 -0.1680062041165284 -0.1620928206375847 -0 -0.1662674582973231 -0.1645658621074845 -0.1351616731741407 -0.170932938067993 -0 0.1714374759536053 0.1649312895753358 0.1651210648694374 0.02318543727882998 0.1712491364906084 0.1573936794488562 0 0.1630298480073397 0.2384340659029196 0.1755052051993704 0.1580696146515476 0.1675125583336004 0.1745165518861859 0.1509648382947034 0.1643577595598988 0.1646581755394787 0.1688807847192729 0.1649254876849342 0.1635762294884775 0.1681866609607551 0.1667793520897864 0.1750220112350762 1:2 2:5 3:5 4:4 5:5 6:5 7:5 8:4 9:5 10:4 11:8 13:5 14:7 15:5 17:9 18:10 
-0.2661156560738938 -0.2758900957618318 -0.2687895440852796 -0.2740781650982136 -0.2891241295010336 -0.2832328120321796 -0.2681006071769471 -0 -0.2711807081636622 -0.2653586626109553 -0.3451423489946432 -0.2782445258921128 -0 0.2800502031370918 0.2853752874087637 0.2686007684358263 0.4075416993415611 0.2836434088649749 0.2590507872058513 0 0.2579236793008175 0.2420017384428541 0.2745638146528024 0.2570368008149884 0.2698396191402526 0.2839403007822935 0.2479757182610414 0.2674494697395101 0.2697587857187571 0.2769127520911794 0.2632049608324537 0.2705445247326099 0.2703259507641733 0.2705445314153116 0.2846560411785601 1:2 2:5 3:4 4:5 5:4 6:5 7:5 8:5 9:5 10:4 11:7 13:6 14:7 15:5 17:9 18:10 
-0.02562774234642656 -0.03361795365560938 -0.02937849182561316 -0.03064872837770336 -0.02137988042536095 -0.02924667817900646 -0.03090381959223883 -0 -0.03137642561255365 -0.02808265410616173 -0.08305621194977267 -0.03008019919758795 -0.4024756790819931 0.03227108196140031 0.02985595639818268 0.02863995656436272 0.1335388619197554 0.03469645844072137 0.03051867055815408 0 0.02577190269966662 0 0.02319342632432089 0.02881940966688242 0.0282990284838755 0.03058678532080361 0.0280814032023679 0.02823274058793085 0.02950701558586004 0.03118806439623901 0.02907800576929033 0.03493807728867242 0.02624641628791055 0.02804294370674485 0.03039991068787556 1:2 2:5 3:5 4:5 5:5 6:5 7:5 8:4 9:5 10:4 11:8 13:6 14:6 15:6 17:9 18:10 
-0.1773547294804912 -0.27608516250321 -0.1761564787241688 -0.2028061057810525 -0.1833412057543611 -0.1857959615848612 -0.1772470701600507 -0.4907090160705335 -0.1781293883913836 -0.1733604362449031 -0.2651528119804588 -0.1816665652854575 -0 0.184048470763 0.1903715155446453 0.1759626655064954 0.1747910991125736 0.1971950266260021 0.1696992953898304 0 0.1740209182453451 0.1491882875419715 0.1850120094215238 0.1672680894173838 0.1797845150247468 0.1876640198279542 0.1632280055036833 0.175542639221752 0.1807823229213315 0.1812646784484685 0.1876782261616574 0.1942357698363969 0.1775764907230525 0.2011997627930545 0.1880028286443495 1:2 2:5 3:5 4:5 5:5 6:5 7:4 8:5 9:5 10:4 11:8 13:6 14:7 15:6 17:8 18:10 
-0 -0 -0 -0 -0 -0 -0 -0 -0 -0 -0 -0 -0 0 0 0 0 0 0 0.8779991880887827 0 0 0 0 0 0 0 0 0 0 0 0 0 0 0 1:2 2:5 3:5 4:5 5:5 6:5 7:5 8:5 9:5 10:4 11:8 13:6 14:7 15:6 17:9 18:10 
-0.2713227113937094 -0.2888950267593587 -0.1737667406524762 -0.3000483741866505 -0.2702573245567971 -0.281815039188806 -0.1768799826288452 -0.2703033153282463 -0.2765149724855445 -0.2655767444974865 -0.3069396982726443 -0.2871433961926647 -0.2749098821151177 -0.2620048040038445 0.2889048046084391 0.1485161819730698 0.2741550465865257 0.4217264031202806 0.2637924238790507 0.2909595672217705 0.2682902315485449 0.2798480476858078 0.2869985955543747 0.2764935159785093 0.2840596683155098 0.2913006149902275 0.2514250470660899 0.3253781657104829 0.3018103519452393 0.2808875534655069 0.2819474979647793 0.314299485236064 0.2769188880332254 0.3437065416541147 0.4328679596728716 1:5 2:5 3:6 4:6 5:6 6:5 7:6 8:6 9:6 10:5 11:4 12:7 13:7 14:8 15:8 16:8 17:4 18:10 
-0 -0 -0.1165975840831528 -0 -0 -0 -0 -0 -0 -0 -0 -0 -0 -0 0 0 0 0 0 0 0 0 0 0 0 0 0 0 0 0 0 0 0 0 0 1:5 2:6 3:5 4:6 5:6 6:6 7:6 8:6 9:6 10:5 11:4 12:8 13:8 14:8 15:8 16:7 17:4 18:10 
-0.3357583377900396 -0.355661704044095 -0.09291118510499234 -0.3459715272707314 -0.3397830642999116 -0.3514626613024217 -0.2589125832266693 -0.3393781049040476 -0.3481610430068584 -0.336992330311717 -0.3823462605490747 -0.3538274571356169 -0.3444901786842692 -0.3302972869623888 0.3539521014702546 0.3950949204142076 0.3422489915580545 0.310689024910773 0.3302610677401069 0.3638313957746807 0.3223930956834395 0.3465956265607711 0.3464317975387052 0.3255298403190055 0.3424378459754707 0.3629052853110799 0.3151187806324185 0.3325006446502871 0.3333090089317808 0.3533121567450031 0.3411057679355763 0.3353723339575769 0.3460218822593065 0.3185566826572342 0.3555013081798006 1:5 2:6 3:6 4:5 5:6 6:6 7:6 8:5 9:6 10:5 11:4 12:8 13:8 14:8 15:8 16:8 17:4 18:8 
-0 -0 -0 -0 -0 -0 -0 -0 -0 -0 -0 -0 -0 -0 0 0.06073230466325678 0 0 0 0 0 0 0 0 0 0 0 0 0 0 0 0 0 0 0 1:5 2:6 3:5 4:6 5:6 6:6 7:6 8:6 9:5 10:5 11:4 12:8 13:8 14:8 15:8 16:7 17:3 18:10 
-0.1162078683080155 -0.1189772304735569 -0.2421771728762705 -0.1307173324755778 -0.109803787113803 -0.1142831552812358 -0.261509020708288 -0.1065639970657817 -0.1105729448927167 -0.1199633675526678 -0.1257947660631783 -0.1148504098807024 -0.1071336286643473 -0.1043001000656653 0.1153557257197743 1 0.110239569880427 0.1522237978134057 0.1041593705196742 0.1151171723652968 0.1133848396471135 0.1104073540226117 0.1252643017441667 0.1099329957419594 0.1153856696829348 0.1211408898717653 0.09939935143019173 0.1225826094580983 0.18724607319909 0.116281944422394 0.1208943467116061 0.1390919180055253 0.1158040638485392 0.1488385858370742 0.110348338320372 1:5 2:6 3:6 4:6 5:6 6:6 7:5 8:5 9:6 10:5 11:4 12:7 13:8 14:8 15:7 16:8 17:4 18:10 
-0 -0 -0 -0 -0 -0 -0 -0 -0 -0 -0 -0 -0 -0 0 1 0 0.0513818024418824 0 0 0 0 0 0 0 0 0 0 0 0 0 0 0 0 0 1:5 2:6 3:6 4:6 5:6 6:6 7:6 8:6 9:5 10:4 11:4 12:7 13:8 14:8 15:8 16:8 17:3 18:10 
-0.3835880786016681 -0.4091859380347773 -0 -0.3999966144854091 -0.3873195907995649 -0.4013619040263752 -0.2983192882281227 -0.3873205260355146 -0.3969861979160064 -0.3817214985765698 -0.4365842411857921 -0.4034539671431454 -0.3924645435195454 -0.3768430981634347 0.4029562191185254 1 0.3911481753705504 0.4286935322664307 0.3764146154705446 0.4148383994280835 0.3619811270867331 0.3956645448925343 0.3958758840678191 0.35608429294684 0.3943249573056623 0.4167007535395046 0.3604300149281302 0.4066876224303573 0.4273551691934245 0.4026597049299236 0.3887875610491823 0.3939778633874143 0.3901278651130249 0.4061739657189086 0.4287538338538502 1:5 2:6 3:6 4:6 5:6 6:6 7:6 8:5 9:5 10:4 11:4 12:8 13:8 14:8 15:8 16:7 17:2 18:10 
-0 -0 -0.1623761029141797 -0 -0 -0 -0.1003854758859151 -0 -0 -0 -0 -0 -0 -0 0 1 0 0 0 0 0 0 0 0 0 0 0 0 0 0 0 0 0 0 0 1:5 2:5 3:6 4:5 5:6 6:6 7:6 8:5 9:6 10:5 11:4 12:8 13:7 14:8 15:8 16:7 17:4 18:9 
-0 -0 -0.3172035018324721 -0 -0 -0 -0 -0 -0 -0 -0 -0 -0 -0 0 0 0 0 0 0 0 0 0 0 0 0 0 0 0 0 0 0 0 0 0 1:5 2:6 3:6 4:6 5:6 6:6 7:6 8:6 9:5 10:5 11:4 12:8 13:8 14:8 15:8 16:8 17:4 18:9 
-0 -0 -0.6810585799260389 -0 -0 -0 -0 -0 -0 -0 -0 -0 -0 -0 0 0 0 0 0 0 0 0 0 0 0 0 0 0 0 0 0 0 0 0 0 1:4 2:6 3:6 4:6 5:6 6:5 7:6 8:6 9:6 10:5 11:3 12:7 13:8 14:8 15:8 16:8 17:4 18:10 
-0 -0 -0.0656431670854149 -0 -0 -0 -0 -0 -0 -0 -0 -0 -0 -0 0 0 0 0 0 0 0 0 0 0 0 0 0 0 0 0 0 0 0 0 0 1:5 2:6 3:5 4:6 5:6 6:6 7:6 8:6 9:6 10:5 11:4 12:8 13:8 14:8 15:8 16:8 17:4 18:9 
-0.3492305054275109 -0.3736986472954826 -1 -0.3622001338331164 -0.3544693126697218 -0.3677353893760362 -0.4950044451100237 -0.3542385859607931 -0.3628009370641131 -0.3538755168412107 -0.4006981587896916 -0.3684036262379696 -0.3580576604940762 -0.3429440819600899 0.3710174050570044 0.007736107986009997 0.3573439290000558 0.365977185601412 0.3469044824000341 0.3804735327972082 0.3454184177524482 0.3629314182490424 0.3702122047545603 0.3567108023552735 0.3666684195721753 0.3785811470910362 0.3284410303320748 0.3397972741851261 0.3375747893715291 0.3681037641313129 0.3534345756332609 0.3434405067962606 0.3666750399992317 0.332877656100694 0.3306499349655825 1:3 2:6 3:6 4:6 5:6 6:6 7:6 8:6 9:6 10:5 11:3 12:8 13:8 14:8 15:8 16:7 17:4 18:10 
-0 -0 -0.1778062628304492 -0 -0 -0 -0 -0 -0 -0 -0 -0 -0 -0 0 0 0 0 0 0 0 0 0 0 0 0 0 0 0 0 0 0 0 0 0 1:5 2:6 3:6 4:6 5:6 6:6 7:6 8:6 9:6 10:4 11:4 12:8 13:8 14:8 15:8 16:7 17:4 18:10 
-0 -0 -0.1739152659260678 -0 -0 -0 -0 -0 -0 -0 -0 -0 -0 -0 0 0 0 0 0 0 0 0 0 0 0 0 0 0 0 0 0 0 0 0 0 1:5 2:6 3:6 4:6 5:6 6:6 7:6 8:5 9:6 10:5 11:4 12:8 13:8 14:8 15:8 16:7 17:4 18:10 
-0.1831856846312024 -0.07154521805174553 -0.1874897370615984 -0 -0.1858660583493072 -0.110874617545725 -0.1882105983551736 -0.1798135479324578 -0.1924875942537024 -0.18635197097536 -0.0564611201602235 -0.09170521439301221 -0.1888704074357668 -0.1811507049051859 -0.1920857426064869 0.1852665005624929 0 0.1684884792702373 0.1827020387854224 0.1874849551327052 0.1758067311954235 0.1674968893859203 0.1894190676024273 0.1773419153392728 0.1918881142490248 0.1875400550238589 0.1734430154866033 0.1833626628236749 0.1831688076671832 0.1945820055073786 0.1261179699987202 0 0.1953545109617631 0.04955616783500213 0.1501025157224185 1:1 2:6 3:6 4:6 5:3 6:7 7:7 8:7 9:7 10:5 11:8 13:7 14:8 15:8 16:8 17:7 18:9 
-0 -0 -0 -0 -0 -0.2514744827795994 -0 -0 -0 -0 -0 -0 -0 -0 -0 0 0 0 0 0 0 0 0 0 0 0 0 0 0 0 0 0 0 0 0 1:2 2:6 3:6 4:5 5:3 6:7 7:7 8:7 9:7 10:5 11:8 13:7 14:8 15:7 16:8 17:7 18:10 
-0.1677000169200693 -0 -0.1723671980047597 -0.06697631610407502 -0.1443278409448548 -0 -0.1678635122853358 -0.1533007456417269 -0.1712289709179325 -0.1675922359270263 -0 -0.1827739587830668 -0.170073893515164 -0.1550852229584917 -0.1798337511509143 0.1713429818295789 0 0.1761521359142731 0.1641972270567269 0.1477306236612477 0.1482927733510571 0.159959114117156 0.1700693690082199 0.1659899570315068 0.1607171249104113 0.1711321178141597 0.1563728882167875 0.1769803002617986 0.161910087852183 0.175281327615978 0.03302981053689284 0 0.1690014074916438 0.1918914769047948 0.1768245684218348 1:2 2:6 3:5 4:6 5:3 6:7 7:7 8:7 9:7 10:5 11:8 13:6 14:8 15:8 16:8 17:7 18:10 
-0 -0 -0 -0 -0 -0 -0 -0 -0 -0 -0.03735577426705398 -0 -0 -0 -0 0 0.2064374958703906 0 0 0 0 0 0 0 0 0 0 0 0 0 0 0 0 0 0 1:2 2:5 3:6 4:6 5:3 6:7 7:7 8:7 9:7 10:5 11:8 13:7 14:8 15:8 16:7 17:7 18:10 
-0 -0 -0 -0 -0.08331060389450476 -0.497996826363752 -0 -0 -0 -0 -0 -0 -0 -0 -0 0 0 0 0 0 0 0 0 0 0 0 0 0 0 0 0 0 0 0 0 1:2 2:5 3:6 4:5 5:3 6:7 7:7 8:7 9:7 10:5 11:7 13:7 14:8 15:7 16:8 17:7 18:10 
-0 -0.2275095704132976 -0 -0.08602422263662941 -0 -0 -0 -0 -0 -0 -0.3433081236315756 -0 -0 -0 -0 0 0.4084004129979567 0.08094776159334459 0 0.02132898116028302 0 0 0 0 0 0 0 0 0 0 0 0.3986315468464627 0 0.08050733760652393 0 1:2 2:6 3:6 4:6 5:3 6:6 7:7 8:7 9:7 10:5 11:8 13:7 14:8 15:8 16:7 17:7 18:10 
