svm_type c_svc
kernel_type rbf
gamma 0.0625
nr_class 10
total_sv 22
rho 0 0 0 0 0 0 0 0 0 0 0 0 0 0 0 0 0 0 0 0 0 0 0 0 0 0 0 0 0 0 0 0 0 0 0 0 0 0 0 0 0 0 0 0 0
label 48 49 50 51 52 53 54 55 56 57
nr_sv 3 2 2 2 2 2 2 2 3 2
SV
0 0 0 0 0 0 0 0.1517474819543213 0 1:2 2:4 3:4 4:4 5:4 6:4 7:4 8:4 9:4 10:2 11:2 12:8 13:8 14:8 15:8 16:2 
0 0.03113765969755069 0.05978921571127865 0 0.1178170460807265 0.1811325498149457 0.00248491176596058 1 0.1811325498149457 1:2 2:4 3:4 4:4 5:4 6:4 7:4 8:4 9:4 10:2 11:2 12:8 13:8 14:8 15:8 16:2 
1 1 1 1 1 1 1 1 1 1:2 2:4 3:4 4:4 5:4 6:4 7:4 8:4 9:4 10:2 11:2 12:8 13:8 14:8 15:8 16:2 
-0 0.004652463795761715 0 0 0 0 0.001505702887151478 0 0 1:5 2:3 3:5 4:5 5:5 6:5 7:5 8:5 9:5 10:1 11:8 12:8 14:9 15:9 16:10 
-1 1 1 1 1 1 1 1 1 1:5 2:3 3:5 4:5 5:5 6:5 7:5 8:5 9:5 10:1 11:8 12:8 14:9 15:9 16:10 
-0.03113765969755069 -0.004652463795761715 0.4015511346553596 0.001706527114004756 0.1178170460807265 0.1025534418268557 0.1356318905115224 0.06829373108386864 0.1356318905115224 1:2 2:4 3:5 4:5 5:5 6:5 7:5 8:5 9:5 11:7 12:7 13:7 14:7 15:7 16:6 
-1 -1 1 1 1 1 1 1 1 1:2 2:4 3:5 4:5 5:5 6:5 7:5 8:5 9:5 11:7 12:7 13:7 14:7 15:7 16:6 
-0.05978921571127865 -0 -0.4015511346553596 0.0008053811361155282 0.1811325498149457 0.06829373108386864 0.06829373108386864 0.156517640415225 0.4807191046182052 1:2 2:4 3:5 4:5 5:3 6:5 7:5 8:5 9:4 10:2 11:8 12:8 13:7 14:7 15:7 16:3 
-1 -1 -1 1 1 1 1 1 1 1:2 2:4 3:5 4:5 5:3 6:5 7:5 8:5 9:4 10:2 11:8 12:8 13:7 14:7 15:7 16:3 
-0 -0 -0.001706527114004756 -0.0008053811361155282 0 0.00103436643188358 0.001172252145247671 0 0.0006271197489921666 1:5 2:4 3:4 4:4 5:4 6:4 8:5 9:5 10:3 11:8 12:8 13:7 14:7 16:8 
-1 -1 -1 -1 1 1 1 1 1 1:5 2:4 3:4 4:4 5:4 6:4 8:5 9:5 10:3 11:8 12:8 13:7 14:7 16:8 
-0.1178170460807265 -0 -0.1178170460807265 -0.1811325498149457 -0 0.4807191046182052 0.04033829254916511 0.5819767297679643 0.1811325498149457 2:5 3:5 4:5 5:1 6:5 7:5 8:5 9:4 10:2 11:4 12:7 13:7 14:7 15:7 16:5 
-1 -1 -1 -1 -1 1 1 1 1 2:5 3:5 4:5 5:1 6:5 7:5 8:5 9:4 10:2 11:4 12:7 13:7 14:7 15:7 16:5 
-0.1811325498149457 -0 -0.1025534418268557 -0.06829373108386864 -0.00103436643188358 -0.4807191046182052 0.01865736083913135 0.7148599796063385 0.2103225179058985 1:3 2:5 3:5 4:5 5:2 6:3 7:4 8:4 9:4 10:2 11:3 12:7 13:7 14:7 15:7 16:6 
-1 -1 -1 -1 -1 -1 1 1 1 1:3 2:5 3:5 4:5 5:2 6:3 7:4 8:4 9:4 10:2 11:3 12:7 13:7 14:7 15:7 16:6 
-0.00248491176596058 -0.001505702887151478 -0.1356318905115224 -0.06829373108386864 -0.001172252145247671 -0.04033829254916511 -0.01865736083913135 0.007693837398902223 0.04033829254916511 2:4 3:5 4:5 5:5 6:5 7:5 8:5 9:5 10:5 11:8 12:7 13:7 14:7 15:7 16:8 
-1 -1 -1 -1 -1 -1 -1 1 1 2:4 3:5 4:5 5:5 6:5 7:5 8:5 9:5 10:5 11:8 12:7 13:7 14:7 15:7 16:8 
-0.1517474819543213 -0 -0 -0 -0 -0 -0 -0 0 1:2 2:4 3:4 4:4 5:2 6:4 7:4 8:4 9:4 10:2 11:3 12:7 13:7 14:7 15:7 16:3 
-1 -0 -0.06829373108386864 -0.156517640415225 -0 -0.5819767297679643 -0.7148599796063385 -0.007693837398902223 0.4807191046182052 1:2 2:4 3:4 4:4 5:2 6:4 7:4 8:4 9:4 10:2 11:3 12:7 13:7 14:7 15:7 16:3 
-1 -1 -1 -1 -1 -1 -1 -1 1 1:2 2:4 3:4 4:4 5:2 6:4 7:4 8:4 9:4 10:2 11:3 12:7 13:7 14:7 15:7 16:3 
-0.1811325498149457 -0 -0.1356318905115224 -0.4807191046182052 -0.0006271197489921666 -0.1811325498149457 -0.2103225179058985 -0.04033829254916511 -0.4807191046182052 1:2 2:4 3:4 4:4 5:3 6:2 7:5 8:5 9:5 10:3 11:6 12:7 13:7 14:7 15:7 16:3 
-1 -1 -1 -1 -1 -1 -1 -1 -1 1:2 2:4 3:4 4:4 5:3 6:2 7:5 8:5 9:5 10:3 11:6 12:7 13:7 14:7 15:7 16:3 
